tree
version=v4
num_class=1
num_tree_per_iteration=1
label_index=0
max_feature_idx=29
objective=binary sigmoid:1
feature_names=Time V1 V2 V3 V4 V5 V6 V7 V8 V9 V10 V11 V12 V13 V14 V15 V16 V17 V18 V19 V20 V21 V22 V23 V24 V25 V26 V27 V28 Amount
feature_infos=[0:172792] [-46.855047200781797:2.4465049849959599] [-60.464617655649299:22.057728990490901] [-48.325589362395398:4.1017161776165096] [-5.5601175811559402:16.8753440335975] [-113.743306711146:29.162172020373301] [-20.869626188413299:73.301625545964598] [-43.5572415712451:120.589493945238] [-73.216718455267397:19.587772623440401] [-13.4340663182301:10.370657984046] [-24.588262437247501:15.2456856915255] [-4.0498949143506104:12.018913181619901] [-18.683714633344302:7.8483920756446004] [-5.7918812063208396:7.1268829585937601] [-19.214325490261398:10.526766051784699] [-4.49894467676621:8.8777415977427694] [-14.129854517493101:17.315111517627798] [-25.162799369324802:8.5381951386261594] [-9.4987459210467708:4.7123975663522497] [-6.9382973176848104:5.5721133268796903] [-54.497720494566003:38.1172091261285] [-34.8303821448146:27.202839157315399] [-9.4994229643025108:10.503090089945401] [-30.269720014316999:22.0835448685737] [-2.8366269187034101:4.5845491368981701] [-7.0813253463773904:6.0708503840779802] [-2.60455055280817:3.5173456116238002] [-9.5435183364842899:31.612198106136301] [-15.4300839055349:15.8704740546886] [0:25691.16]
tree_sizes=3361 3414 3395 3399 3429 3408 3429 3427 3440 3438 3439 3427 3428 3419 3441

Tree=0
num_leaves=31
num_cat=0
split_feature=17 14 12 7 4 26 26 14 7 17 25 4 17 25 26 14 12 8 24 5 16 29 1 4 15 7 17 11 23 21
split_gain=41325.4 5906.45 4148.34 2915.01 217.525 166.184 369.618 83.5556 394.393 54.471 38.8802 19.8148 88.12 136.555 78.7827 29.7337 60.0249 12.1519 19.9215 55.2418 20.6824 20.9321 36.6015 9.35755 8.89219 6.62664 33.0305 11.1668 27.8926 5.01275
threshold=-2.2915491388384046 -4.8412096788159742 -1.8987576089955349 1.2081771615767403 1.5897199403555202 -0.26422080987423097 -0.31937213699431449 -3.3336187651522047 0.26656404423695756 0.62702415048926663 0.75080216700537716 2.4853369031465102 1.5289837418341603 0.16099393203960802 -0.19633730603144997 -2.1327427537957599 -0.31976280005473096 -0.13334191530117998 0.75863174311118253 0.75487901762195608 -0.83618875858701347 1.0050000000000001 -0.12590323532816497 1.8321122986399851 1.2014729441454852 2.4823367197296151 1.4036106212781403 -1.3743327683016899 0.22050476704191505 0.63469550923414009
decision_type=2 2 2 2 2 2 2 2 2 2 2 2 2 2 2 2 2 2 2 2 2 2 2 2 2 2 2 2 2 2
left_child=2 3 4 9 -1 6 -6 8 -3 -2 24 25 15 14 -14 16 -13 18 20 -20 -17 22 -22 -10 -7 29 27 28 -27 -9
right_child=1 7 -4 -5 5 10 -8 11 23 -11 -12 12 13 -15 -16 17 -18 -19 19 -21 21 -23 -24 -25 -26 26 -28 -29 -30 -31
leaf_value=-3.7792394595682257 -3.2604927510230359 -4.8018868181475289 -5.3354416484518605 -5.1048908561589501 -3.3181416114035995 -3.2605067344461096 -4.0904784199246338 -5.3348659067080213 -5.3354391498303819 -3.5717448184956062 -3.4491349755908658 -5.3354391468100664 -5.0241989556785773 -4.9581783084193676 -5.3354391455314198 -5.2096855329754659 -5.0241989519551655 -5.3346708135468441 -5.3354391436818567 -5.0524935196682197 -5.3354391468235187 -5.3354391468733287 -5.1346391133438587 -5.2316923875001402 -3.3642512228171393 -5.1279456756406709 -5.1468087280390744 -5.332043180427668 -5.3354391465803923 -5.3278594719996279
leaf_weight=0.15422312868759025 0.13494265777990122 0.1686790226958681 0.12530384166166086 0.17349944496527314 0.17349944449961185 0.57833134988322854 0.096388581674545781 314.00507947057486 0.8867749460041523 0.096388591453433037 0.15904116304591298 0.17349944496527314 0.096388580277562141 0.15904115745797753 0.52049832744523783 0.15904115745797831 0.096388576086616662 13.017278469167643 0.19759659189730872 0.10602743877097964 0.23133259313181043 2.9446710338816047 0.14940237347037433 0.096388580743223429 0.096388578880578279 0.09638857655227262 0.10602743923664082 2.9446713882498434 0.19759659236297011 10.554549469146876
leaf_count=32 28 35 26 36 36 120 20 65154 184 20 33 36 20 33 108 33 20 2701 41 22 48 611 31 20 20 20 22 611 41 2190
internal_value=-5.32539 -5.33224 -3.6003 -4.12506 -3.42745 -3.3783 -3.59398 -5.33365 -5.24862 -3.39018 -3.30848 -5.33394 -5.32368 -5.21945 -5.28681 -5.32841 -5.22428 -5.33008 -5.31432 -5.23663 -5.32109 -5.32642 -5.25664 -5.32527 -3.27533 -5.33449 -5.32049 -5.32618 -5.26741 -5.33464
internal_weight=0 347.312 1.38318 0.404831 1.25787 1.10365 0.269888 346.907 1.15184 0.231331 0.833761 345.755 17.8512 0.775928 0.616887 17.0752 0.269888 16.8053 3.78807 0.303624 3.48445 3.32541 0.380735 0.983164 0.67472 327.904 3.34468 3.23866 0.293985 324.56
internal_count=72352 72065 287 84 261 229 56 71981 239 48 173 71742 3704 161 128 3543 56 3487 786 63 723 690 79 204 140 68038 694 672 61 67344
is_linear=0
shrinkage=1


Tree=1
num_leaves=31
num_cat=0
split_feature=14 10 17 7 17 1 4 4 4 17 10 18 16 14 23 8 24 10 16 29 25 6 26 20 7 17 11 26 21 29
split_gain=7358.72 862.971 240.289 151.22 108.623 110.015 61.7055 47.4984 19.6892 76.5174 111.391 116.589 32.4178 26.2243 49.404 11.9121 17.3622 38.4847 17.998 19.4304 11.0906 8.37413 23.6354 7.74032 6.57408 36.2361 10.3692 25.6253 5.01765 17.6984
threshold=-3.3336187651522047 -1.8403568755655046 -2.2915491388384046 -0.68512227427018446 0.62702415048926663 1.0000000180025095e-35 1.5472515637689201 3.9865782600730904 2.4853369031465102 1.5289837418341603 -0.10281867000823049 0.69834939525513307 1.5646735702767802 -2.1327427537957599 0.095885411023706513 -0.13334191530117998 0.75863174311118253 1.2587986393058301 -0.83618875858701347 0.74500000000000011 0.75080216700537716 -2.0536340366325545 -0.26422080987423097 0.82443956165340315 2.4823367197296151 1.4626711922998252 -1.3743327683016899 -0.21677097931552647 0.63469550923414009 0.76500000000000012
decision_type=2 2 2 2 2 2 2 2 2 2 2 2 2 2 2 2 2 2 2 2 2 2 2 2 2 2 2 2 2 2
left_child=1 4 -2 -3 6 -6 -1 -5 24 13 11 -11 -12 14 -10 16 18 -18 -15 -20 21 23 -23 -8 28 26 27 -26 -4 -30
right_child=2 3 8 7 5 -7 20 -9 9 10 12 -13 -14 15 -16 -17 17 -19 19 -21 -22 22 -24 -25 25 -27 -28 -29 29 -31
leaf_value=0.38928547327756824 0.19380848294125042 0.26678281712793761 -0.0094695637428924857 -0.010057071333805552 0.28667853792709869 0.56620025470096169 0.276477561359736 0.13556711337137561 0.25408962493732018 0.066605026161196373 -0.010053658835523331 0.50098477674279673 0.18399290137300173 0.10209201340129796 -0.010057286819723002 -0.0092729112570012207 -0.010051720898684655 0.20791461025543748 0.099048589243488139 -0.0068655543475009432 0.31213632262693003 0.33350306267941393 0.27386102086622616 0.24149422670051621 0.18200918784162368 0.19451583636835337 -0.0066632975882482664 -0.010051921738526908 0.091415062222498275 -0.0042411537431355992
leaf_weight=0.57570019271224371 0.58791399002075095 0.28870024532079708 311.07223806809634 1.2169338837265953 0.26946059754118401 0.29491258040070534 1.7430905532091832 0.27450521662831318 0.11357493232936278 0.13043873524293303 0.5228844084776928 0.11740626767277718 0.10306329652667046 0.17833793535828668 0.18803022522479296 12.898183929733925 0.19688135851174582 0.13763132505118847 0.18331717140973447 3.1416693674400449 1.0544079402461646 0.84342025080695515 3.1311532650142961 0.99263415485620488 0.10413284227252007 0.097764130681753048 2.9540883810259393 0.20868801511824209 0.19711319915950198 10.331659694202243
leaf_count=27 28 12 65154 234 23 17 52 32 22 23 101 20 17 33 34 2701 39 24 36 654 36 29 89 31 20 17 616 41 41 2149
internal_value=0 0.258297 -0.00818534 0.0572963 0.298478 0.432742 0.289393 0.0167456 -0.00853169 0.00167533 0.0929427 0.272374 0.0218964 -0.00300541 0.0894121 -0.0046709 0.0107955 0.079628 0.0042231 -0.00102617 0.281987 0.277249 0.286517 0.263784 -0.00909428 0.0048112 -0.000865819 0.053882 -0.00923976 -0.00245034
internal_weight=0 10.6849 343.465 1.78014 8.90478 0.564373 8.34041 1.49144 342.877 17.9114 0.873793 0.247845 0.625948 17.0376 0.301605 16.736 3.83784 0.334513 3.50332 3.32499 7.76471 6.7103 3.97457 2.73572 324.966 3.36467 3.26691 0.312821 321.601 10.5288
internal_count=72352 582 71770 278 304 40 264 266 71742 3704 161 43 118 3543 56 3487 786 63 723 690 237 201 118 83 68038 694 677 61 67344 2190
is_linear=0
shrinkage=0.01


Tree=2
num_leaves=31
num_cat=0
split_feature=14 10 17 21 12 10 29 28 4 17 1 23 14 21 8 8 16 24 29 7 20 21 27 24 2 7 17 11 28 21
split_gain=5681.61 470.42 199.496 115.091 37.1423 34.7326 38.2744 43.5955 19.567 67.1641 75.8504 49.9819 23.4767 39.7749 11.6931 16.1036 16.3618 59.6526 9.4053 16.6097 8.16119 6.9715 9.93913 14.7911 6.84875 6.52241 33.6175 9.66688 24.4948 5.02195
threshold=-3.3336187651522047 -1.8403568755655046 -2.2915491388384046 -0.039870750626112492 -1.9827507846113497 -3.5054203195590348 1.2950000000000002 0.25721092018346353 2.4853369031465102 1.5289837418341603 0.80685692889763605 0.35025850706702405 -2.1327427537957599 -0.28138116766537696 -0.13334191530117998 -0.14854353700361797 -0.44306572052066945 0.61987962576651012 1.0050000000000001 0.027624641416230705 -0.7169519005443129 1.7135801392692853 0.75164126027214706 -0.091000871114087986 2.2834483599881903 2.4823367197296151 1.5289837418341603 -1.3743327683016899 0.18768008009918302 0.63469550923414009
decision_type=2 2 2 2 2 2 2 2 2 2 2 2 2 2 2 2 2 2 2 2 2 2 2 2 2 2 2 2 2 2
left_child=1 5 -2 4 -3 21 7 -7 25 12 11 -11 13 -10 15 16 17 20 19 -18 -14 22 24 -24 -1 29 27 28 -27 -4
right_child=2 3 8 -5 -6 6 -8 -9 9 10 -12 -13 14 -15 -16 -17 18 -19 -20 -21 -22 -23 23 -25 -26 26 -28 -29 -30 -31
leaf_value=0.24090543577726384 0.15990148863127385 0.13463395426844293 -0.0094636560712999737 0.1957089953671185 -0.010060614802855347 0.36281218370705559 0.22034591622039076 0.23388292191948024 -0.01005862707903536 -0.01006015540640973 0.23451058134448344 0.1977910219788975 0.090180130825334576 0.21284565286227988 -0.0092653478473352542 0.10433048894912496 0.12655823085197299 0.26513312801373201 -0.010049208911458378 -0.010056667935890762 -0.010051999388545983 0.22974520497167891 0.21191417065041149 0.16089423305916267 0.21204404580779032 -0.010054322078957852 0.18127078395115379 -0.0066567768270928218 0.17279363622650448 -0.0024323810996315439
leaf_weight=1.0741689372807721 0.70476627349853416 0.20690988143905986 308.1682732719928 0.43688950594514508 1.244055568706244 0.56273828959092431 1.213274073321372 0.49117628298699856 0.19757127063348889 0.5831946530379345 0.24530982598662376 0.14432381978258491 0.09976669168099761 0.13458201987669483 12.780265422072254 0.17485298635438873 0.14640058716759119 0.10901542427018285 2.6894439104944468 0.22696214495226741 0.43731437344104129 2.4145611971616745 1.6187238618731501 0.87558494880795468 3.505097346380353 0.22190182795748192 0.10452517401427019 2.9485935987904659 0.10937733901664615 10.50413799472153
leaf_count=27 28 12 65154 34 232 24 37 16 35 105 34 22 19 21 2701 35 28 20 557 41 86 58 37 25 80 42 15 618 19 2190
internal_value=0 0.199945 -0.00817024 0.0534174 0.0105731 0.223476 0.25864 0.302725 -0.0085186 0.0016371 0.0824469 0.031173 -0.00298829 0.0802578 -0.00464759 0.0105481 0.00612678 0.0518571 -0.00352 0.0435119 0.00856684 0.215074 0.210066 0.194004 0.218814 -0.00908523 0.00472399 -0.00090232 0.050316 -0.00923189
internal_weight=0 13.6432 340.731 1.88785 1.45097 11.7553 2.26719 1.05391 340.026 17.969 0.972828 0.727518 16.9962 0.332153 16.664 3.88376 3.7089 0.646096 3.06281 0.373363 0.537081 9.48814 7.07358 2.49431 4.57927 322.057 3.3844 3.27987 0.331279 318.672
internal_count=72352 582 71770 278 244 304 77 40 71742 3704 161 127 3543 56 3487 786 751 125 626 69 105 227 169 62 107 68038 694 679 61 67344
is_linear=0
shrinkage=0.01


Tree=3
num_leaves=31
num_cat=0
split_feature=14 10 17 21 12 17 8 2 9 23 29 9 12 8 15 16 25 23 28 20 1 14 19 21 15 2 9 13 8 1
split_gain=4666.74 297.569 171.267 87.8439 32.0798 18.8426 32.5018 39.5844 27.0201 24.4107 20.2443 16.756 14.3504 51.0191 10.8304 64.0413 9.89893 9.61822 8.84123 14.9848 8.80315 6.97524 18.7741 63.1436 8.89846 4.62694 11.0513 4.07031 6.46911 4.03214
threshold=-3.3336187651522047 -1.8403568755655046 -2.2915491388384046 -0.039870750626112492 -1.9827507846113497 1.4036106212781403 -0.43510789556546042 -0.35353922169561897 0.26768194732399159 1.1593535135056301 311.94500000000005 -0.39353160908579149 -0.31976280005473096 -2.4600802963012094 -1.2351748298918248 0.84947277106051911 0.76820512828199872 -0.68411484083836638 0.25721092018346353 0.51643480640061357 2.0407979801308902 -1.5726651627322548 -1.0872394217403498 -1.0000000180025095e-35 1.8689326735586353 2.2834483599881903 -1.5462151882957647 -2.0245321761229191 0.24649545950898152 -1.1402156482737298
decision_type=2 2 2 2 2 2 2 2 2 2 2 2 2 2 2 2 2 2 2 2 2 2 2 2 2 2 2 2 2 2
left_child=1 11 -2 4 -3 21 7 8 -7 14 12 16 13 -9 15 -8 18 -18 25 29 -15 22 23 -4 -24 26 -1 28 -16 -20
right_child=2 3 5 -5 -6 6 9 10 -10 -11 -12 -13 -14 20 27 -17 17 -19 19 -21 -22 -23 24 -25 -26 -27 -28 -29 -30 -31
leaf_value=0.21800677134372082 0.13646303992528602 0.11756937170339594 -0.010052695706087479 0.1610963818802415 -0.010060016674208517 0.067955785483226644 -0.01004828228072986 0.23486741921866766 0.28658880747554927 0.12321976752353894 0.14517790843615605 0.21570018275657343 -0.010049704485324405 -0.010050716423280535 -0.010047324713699323 0.18290420323583459 0.17430334214488646 0.21862213231136093 0.1884729944629337 0.13822401755346631 0.096660037411503447 -0.0091959598379650707 -0.0056554105491664749 0.21011515940180722 0.088844851929635121 0.17465539647376266 0.17404432689112206 -0.010048828180937506 0.096447828247559306 0.16384809899555072
leaf_weight=0.96270181797444854 0.81691741943359275 0.23441791627556074 0.46033909544348717 0.52493305737152596 1.2317505818791685 0.12816680548712622 1.0113707575947017 0.12249021884053946 0.10112905409187078 0.15005690790712911 0.12882552528753888 1.2376151494681842 0.94644620083272324 0.44157434860244371 0.14534200774505279 0.20726340496912588 0.91970688104629505 1.0473221070133156 1.4066553674638271 1.6131706200540064 0.093714268412441015 317.10748649993911 6.8304098448716095 0.1816707532852887 0.10111861722543825 4.5340854907408357 1.4082479262724499 8.9418659768998641 0.093887737952172756 1.2610735730268061
leaf_count=22 28 12 91 34 232 22 213 25 19 27 21 30 196 90 31 28 19 25 28 35 20 67563 1451 32 21 86 32 1874 18 27
internal_value=0 0.164669 -0.00815502 0.0500897 0.010346 -0.00850539 0.00353649 0.0409064 0.164382 -0.00341462 0.0245696 0.180523 0.0148843 0.0507606 -0.00524182 0.0227688 0.177213 0.1979 0.173575 0.162284 0.00863139 -0.00896944 0.000514849 0.0522486 -0.00427682 0.180575 0.191895 -0.00895975 0.0317476 0.176832
internal_weight=0 16.3817 338.01 1.9911 1.46617 337.193 12.5121 1.96235 0.229296 10.5498 1.73305 14.3906 1.60423 0.657779 10.3997 1.21863 13.153 1.96703 11.1859 4.2809 0.535289 324.681 7.57354 0.64201 6.93153 6.90504 2.37095 9.1811 0.23923 2.66773
internal_count=72352 582 71770 278 244 71742 2584 393 41 2191 352 304 331 135 2164 241 274 44 230 90 110 69158 1595 123 1472 140 54 1923 49 55
is_linear=0
shrinkage=0.01


Tree=4
num_leaves=31
num_cat=0
split_feature=14 10 17 7 15 25 4 17 10 2 0 14 12 10 27 16 26 10 20 7 17 11 28 12 3 14 23 15 26 20
split_gain=3975.47 205.227 150.459 71.5666 40.3969 35.9615 19.5282 57.207 57.3962 99.0672 26.8526 20.1693 45.2453 12.0284 22.5387 11.8289 8.96733 8.68393 27.6596 6.49393 36.4655 9.15358 24.6037 4.85857 30.1182 4.44318 12.4619 29.4452 8.61869 6.91081
threshold=-3.3336187651522047 -1.8403568755655046 -2.2915491388384046 -0.90909373200645394 0.18585703955307603 0.21699196817027652 2.4853369031465102 1.5289837418341603 -0.10281867000823049 0.9495229533717876 155266.50000000003 -2.1327427537957599 -0.20407744946177045 -3.5054203195590348 0.097166889555717964 -1.0267138379785499 1.1348207095598803 2.9277898408369754 -0.87373044002693734 2.4823367197296151 1.7237433885134703 -1.3743327683016899 0.20828233597093052 -2.7491087985345946 -0.18747183789220198 -0.80973692506414641 1.1593535135056301 0.95950663707483808 -0.4135159599620874 -2.7914899738600245
decision_type=2 2 2 2 2 2 2 2 2 2 2 2 2 2 2 2 2 2 2 2 2 2 2 2 2 2 2 2 2 2
left_child=1 13 -2 -3 5 -5 19 11 9 -9 -10 12 -8 -1 -15 -16 17 23 -19 25 21 22 -21 24 -13 26 29 28 -28 -4
right_child=2 3 6 4 -6 -7 7 8 10 -11 -12 16 -14 14 15 -17 -18 18 -20 20 -22 -23 -24 -25 -26 -27 27 -29 -30 -31
leaf_value=0.14800819439370783 0.11920844251024081 0.16971300627987848 0.065126964754696565 0.17217782228891243 -0.010089623607135199 -0.010067083434887811 -0.010067026749496326 0.31015908178185686 -0.010066806243081801 -0.010098272366073727 0.15223289472309212 0.17088996635116727 0.22014870818719728 0.21201790501304538 0.17257218103953093 0.12861678368130755 0.089726150655453321 0.17997274633932345 -0.010051271202889341 -0.010053887747714164 0.19552029034772705 -0.0066542033521126958 0.1707280190075556 -0.0074340642439026765 -0.010047428260351177 -0.0096792767883007169 0.095194164219523314 0.20024238046675183 -0.010047837627362723 -0.0070696948958836256
leaf_weight=13.483939170837406 0.92519569396972556 0.38823537249118123 0.133022740483283 0.27394957607611914 1.2489596121013162 0.17903620889410377 0.24757791496813297 0.21856144955381751 0.5902798194438208 0.17307995818555355 0.12322200695052743 0.11053176317363977 0.13029944710434094 0.89845947083085897 1.4191089794039731 1.076785520650446 0.10022081946954031 0.10524752736091614 0.28141929768025953 0.23565977858379561 0.097271189093589672 2.9463574844412497 0.11061967117711902 15.30422126827761 0.54860740806908204 272.00396516220644 0.095018775667995214 0.095106495078653097 0.42978171352296968 40.304776811040938
leaf_count=227 28 10 28 20 219 29 40 23 99 20 19 22 16 24 27 26 20 20 57 45 11 622 16 3251 117 58528 20 20 91 8657
internal_value=0 0.140669 -0.00813972 0.0471982 0.019251 0.100148 -0.00849207 0.00165947 0.0713548 0.168626 0.0179624 -0.00291759 0.0693158 0.152244 0.169069 0.153609 -0.00457685 -0.0051549 0.0416717 -0.00906736 0.00469907 -0.000938179 0.0476973 -0.00628914 0.0202942 -0.00921643 -0.00615007 0.0383464 0.00900696 -0.0068322
internal_weight=0 18.9685 335.31 2.09018 1.70195 0.452986 334.385 17.9333 1.10514 0.391641 0.713502 16.8281 0.377877 16.8783 3.39435 2.49589 16.4502 16.35 0.386667 316.452 3.38991 3.29264 0.346279 15.9634 0.659139 313.062 41.0577 0.619907 0.5248 40.4378
internal_count=72352 582 71770 278 268 49 71742 3704 161 43 118 3543 56 304 77 53 3487 3467 77 68038 694 683 61 3390 139 67344 8816 131 111 8685
is_linear=0
shrinkage=0.01


Tree=5
num_leaves=31
num_cat=0
split_feature=14 12 17 4 4 14 12 21 8 29 15 17 26 4 19 13 26 15 17 15 7 17 11 9 6 14 21 17 25 4
split_gain=3370.62 196.934 126.971 53.2359 19.6043 29.0701 47.3303 93.0104 16.7383 19.0218 56.5128 24.9355 20.927 19.598 11.567 8.56891 9.52105 9.42277 8.4224 8.1529 6.4219 21.9309 9.37124 26.6803 5.32823 4.354 9.25302 28.362 4.11776 4.04935
threshold=-3.3336187651522047 -1.4404172840101797 -2.2915491388384046 1.94373941317257 2.4853369031465102 -1.4570008548394349 -0.49404113822776946 -0.16788028900306048 -0.11474371529410499 7.6150000000000011 -1.4262070631148849 1.6214043890600351 0.47795327988703401 4.9874019753404104 -1.8760653434318149 1.4325517826691001 -0.26422080987423097 0.32043250710695753 2.1842461367649402 0.98675054737344403 2.4823367197296151 1.7237433885134703 -1.3743327683016899 -0.049382649286745295 1.1587257622592151 -0.80973692506414641 2.3577993582813206 1.4036106212781403 0.75080216700537716 0.74627998856935962
decision_type=2 2 2 2 2 2 2 2 2 2 2 2 2 2 2 2 2 2 2 2 2 2 2 2 2 2 2 2 2 2
left_child=1 14 -2 -3 20 6 -6 24 9 10 -7 13 19 -11 -1 16 17 -16 -10 -12 25 22 23 -22 -8 26 29 -28 -18 -4
right_child=2 3 4 -5 5 8 7 -9 18 11 12 -13 -14 -15 15 -17 28 -19 -20 -21 21 -23 -24 -25 -26 -27 27 -29 -30 -31
leaf_value=0.17007702641052291 0.099776824154760496 -0.010087487776870534 -0.0081899855815307822 0.10249098016011932 -0.010072227765291413 0.21308609275122009 -0.01007338989095671 0.2892517381418217 -0.0083990223236697324 -0.010049337115014281 -0.010053885220652922 0.13327897863907834 0.13406317700962009 0.094533630706811464 0.13625424079429746 0.10901785424315433 0.12716647246569621 0.17477247586023226 0.078267569693706879 0.083186715489970461 -0.010063064935711814 0.12253528482199666 -0.0066177244847371265 0.18233761341889865 0.07201675172659372 -0.0096381093306760531 -0.010048358229299373 0.18514514479406485 0.14283398257854724 -0.00033612921375769672
leaf_weight=0.7743208408355774 1.0876140594482411 1.3064145618118335 32.315372393000871 0.61909747542813409 0.61548252776265144 0.17925826739519835 0.22546478686854243 0.20043435040861612 12.134214677847917 2.8464128011837611 0.74669702304527585 0.13947380054742087 0.1387644037604332 0.19121688790619362 1.8362889140844445 1.6691395263187576 11.884266478009517 0.97090705577284087 0.11317860335111696 0.1072474499233067 0.23505068430677056 0.15077749080955971 2.9151225406676522 0.10394704854115921 0.12177213607355952 269.37271421868354 0.27221065480261941 0.1024587182328105 1.9531898158602405 8.2383722127415222
leaf_count=19 30 224 6988 36 100 34 33 27 2610 591 144 15 23 35 31 28 176 26 15 20 40 14 618 17 16 58521 57 19 32 1779
internal_value=0 0.122496 -0.00809391 0.0261091 -0.00844786 0.00177333 0.050101 0.117725 -0.00161369 0.0152391 0.0496729 0.00253715 0.0201646 -0.0034659 0.132219 0.130618 0.132785 0.149576 -0.00759813 0.00165626 -0.0090265 0.00463221 -0.000830747 0.0489329 0.0187147 -0.00917638 -0.00613748 0.0433301 0.129378 -0.0065945
internal_weight=0 21.0136 332.553 1.92551 331.466 17.7596 1.16315 0.547671 16.5965 4.34907 1.17197 3.1771 0.992709 3.03763 19.0881 18.3138 16.6447 2.8072 12.2474 0.853944 313.706 3.4049 3.25412 0.338998 0.347237 310.301 40.9284 0.374669 13.8375 40.5537
internal_count=72318 572 71746 260 71716 3663 176 76 3487 862 221 641 187 626 312 293 265 57 2625 164 68053 689 675 57 49 67364 8843 76 208 8767
is_linear=0
shrinkage=0.01


Tree=6
num_leaves=31
num_cat=0
split_feature=14 12 17 4 4 14 12 18 17 26 21 16 11 15 19 19 13 26 27 15 19 17 20 4 14 23 2 4 22 4
split_gain=2997.09 152.027 115.554 46.8995 19.4908 26.8764 39.1671 75.1755 14.6473 9.15948 9.28983 16.5438 35.2657 7.74075 7.57948 7.41354 6.05732 6.24174 7.14557 6.00412 24.5825 42.0245 20.0241 6.83488 5.22115 9.8354 45.4066 5.36765 21.238 17.627
threshold=-3.3336187651522047 -1.4404172840101797 -2.2915491388384046 1.94373941317257 2.4853369031465102 -1.4570008548394349 -0.49404113822776946 0.55949952822577853 2.1842461367649402 1.2022011268814101 -0.41073176672313944 0.27521770423244357 0.60581104859188362 0.6997235855047047 -1.8760653434318149 2.1772234695239305 1.4325517826691001 -0.25959353189068096 0.025553106375117356 -1.1815683522433498 -1.4744621664871846 -0.7932903830520418 -0.34367602080491894 2.5758924496849507 -0.80973692506414641 1.1593535135056301 -1.6760512947283346 0.74627998856935962 -0.9884207726656099 0.79662940785084213
decision_type=2 2 2 2 2 2 2 2 2 2 2 2 2 2 2 2 2 2 2 2 2 2 2 2 2 2 2 2 2 2
left_child=1 14 -2 -3 24 6 -6 -8 9 10 11 12 13 -7 -1 19 17 18 -16 20 21 -12 -23 -22 25 27 -27 -4 -29 -30
right_child=2 3 4 -5 5 8 7 -9 -10 -11 15 -13 -14 -15 16 -17 -18 -19 -20 -21 23 22 -24 -25 -26 26 -28 28 29 -31
leaf_value=0.14547889927155067 0.090341645953314328 -0.010087078975304507 -0.0082039606598596146 0.092583964390520884 -0.010071506181066267 -0.010054305975236657 -0.01007496985756577 0.21024988875069028 0.07831464766491468 0.095190601740970909 0.21800423547076331 -0.010054216612941617 0.19903992808241949 0.093036178262329197 0.11424932927220705 0.072556406000939849 0.098395353255751397 0.11471732212545982 0.14323601594173188 -0.010047486721686046 0.061144363261131755 0.12168446004669915 -0.010050951094795651 -0.010048653880121621 -0.0095262276532172372 -0.010053102292247243 0.18171361365409022 0.11486731423036055 0.046053746588104065 -0.0060026994859709425
leaf_weight=0.89549921080470696 1.188638687133788 1.29352238588035 32.56425889628008 0.67816842161118973 0.60940181510522962 0.29232345242054225 0.30221201665699726 0.31762587418779731 0.22619654610752959 0.095009328797458603 0.13154486194252968 0.6536521022208035 0.14347046194598079 0.097006306983530521 1.5978725044988196 0.12099909828975874 1.8299620253965247 15.200700612273062 1.8180456105619667 10.670866712927806 0.14046557666734694 0.15181586751714349 0.48082557274028648 3.3740691784769297 269.32155134854838 0.5860400372184813 0.15643174713477392 0.16009928984567423 0.71300587151199391 7.4167523952201009
leaf_count=19 30 224 7088 36 100 56 44 32 27 17 26 129 26 20 28 20 28 205 32 2292 30 30 98 716 59042 117 29 31 154 1592
internal_value=0 0.109241 -0.00807833 0.0252269 -0.00843421 0.00174046 0.046857 0.102827 -0.00160483 -0.00271035 -0.0032825 0.0236591 0.0650194 0.015632 0.117003 -0.00540351 0.115756 0.117462 0.129677 -0.0060345 0.00397363 0.0553768 0.0215618 -0.00720328 -0.00901695 -0.00571959 0.0303503 -0.00637511 0.000808968 -0.00143718
internal_weight=0 23.3138 329.914 1.97169 328.726 17.8075 1.22924 0.619838 16.5782 16.352 16.257 1.18645 0.5328 0.38933 21.3421 15.0706 20.4466 18.6166 3.41592 14.9496 4.27872 0.764186 0.632641 3.51453 310.918 41.5966 0.742472 40.8541 8.28986 8.12976
internal_count=72318 572 71746 260 71716 3663 176 76 3487 3460 3443 231 102 76 312 3212 293 265 60 3192 900 154 128 746 68053 9011 146 8865 1777 1746
is_linear=0
shrinkage=0.01


Tree=7
num_leaves=31
num_cat=0
split_feature=14 10 17 17 1 4 14 21 20 8 29 1 1 17 4 10 25 17 17 3 14 23 2 4 22 4 26 29 9 27
split_gain=2700.8 110.66 106.133 44.1613 25.8268 19.3791 25.0004 32.9548 52.2568 16.1196 17.0868 45.3638 77.9007 20.2394 17.1323 8.29926 9.86366 7.3359 7.15745 6.717 5.24132 9.43155 36.3546 5.33141 16.9938 16.616 62.6559 8.79555 6.2915 4.68406
threshold=-3.3336187651522047 -1.8403568755655046 -2.2915491388384046 -1.4915997486445498 1.7439585633040502 2.4853369031465102 -1.4570008548394349 -0.16788028900306048 -0.082550827610593236 -0.11474371529410499 7.6150000000000011 -0.12590323532816497 1.0436770897609253 1.6214043890600351 4.9874019753404104 -3.5054203195590348 0.34576211549802405 -0.32363752717763494 2.1842461367649402 0.31441792969093108 -0.80973692506414641 1.1593535135056301 -1.6760512947283346 0.74627998856935962 -0.96996248346228542 0.79662940785084213 -0.31937213699431449 0.89500000000000013 -1.1638873912227998 0.37798314045399956
decision_type=2 2 2 2 2 2 2 2 2 2 2 2 2 2 2 2 2 2 2 2 2 2 2 2 2 2 2 2 2 2
left_child=1 15 -2 -3 -5 20 7 19 -9 10 11 -8 -13 14 -12 -1 29 -14 -11 -7 21 23 -23 -4 -25 26 -26 -28 -27 -17
right_child=2 3 5 4 -6 6 9 8 -10 18 13 12 17 -15 -16 16 -18 -19 -20 -21 -22 22 -24 24 25 28 27 -29 -30 -31
leaf_value=0.10259538538218714 0.082569213600707805 0.091280644684194084 -0.0081885283233712764 -0.010104459830178466 0.13186638281472901 -0.010078254462224307 -0.010060312436000066 0.22711180626984118 0.022531498067237789 -0.0083780460708697685 -0.010048843191251409 0.25619529839621463 -0.010052317886498661 0.10963596363705173 0.082229333354788797 0.094773464857642292 0.13824566409817338 0.091613738676627712 0.065670573754683256 0.070012970004234912 -0.0095208666129868499 -0.010052571425583237 0.15023581374682096 0.093509362544814609 0.26503957346291268 0.059564297455532537 0.093599776071011928 -0.010048757413418206 -0.0072752337672790466 0.12029576673944846
leaf_weight=18.655538558959968 1.2870006561279286 0.88147695362567935 32.300635966937989 1.4181980956345785 0.14086383394896973 0.65018354216590524 0.66773139266297221 0.21072974940761924 0.3063999786973024 11.98520860774442 2.8143700826913127 0.2253363821655554 0.25496911071240902 0.16697541857138265 0.21668551303446282 1.5121080679818981 1.541733377613127 0.09835209371522069 0.13197165727615434 0.12481621280312538 266.79132404737175 0.58023932995274663 0.18713543890043993 0.19310588948428531 0.1090552257373929 0.14363088365644117 0.096479848027227422 0.54074700828641653 7.2153947274200627 1.3711411021649835
leaf_count=223 30 38 7088 228 14 98 118 20 37 2610 591 35 50 15 35 25 26 18 15 21 59042 117 29 34 22 28 20 112 1561 18
internal_value=0 0.0987446 -0.00806269 0.0347083 0.00272284 -0.00842048 0.00170867 0.0440737 0.105898 -0.00159663 0.0146933 0.0461011 0.110908 0.00245253 -0.00345202 0.105516 0.117828 0.0182479 -0.00757156 0.0028207 -0.00900733 -0.00569529 0.0290361 -0.00635176 0.000797671 -0.00141115 0.04355 0.00564423 -0.00597068 0.106911
internal_weight=0 25.5211 327.298 2.44054 1.55906 326.011 17.8537 1.29213 0.51713 16.5616 4.44442 1.24639 0.578658 3.19803 3.03106 23.0805 4.42498 0.353321 12.1172 0.775 308.158 41.3664 0.767375 40.599 8.29841 8.10531 0.746282 0.637227 7.35903 2.88325
internal_count=72318 572 71746 280 242 71716 3663 176 57 3487 862 221 103 641 626 292 69 68 2625 119 68053 9011 146 8865 1777 1743 154 132 1589 43
is_linear=0
shrinkage=0.01


Tree=8
num_leaves=31
num_cat=0
split_feature=14 12 17 4 4 14 12 18 7 1 17 21 11 26 15 7 17 11 15 3 20 24 7 14 21 4 4 4 26 14
split_gain=2459.51 101.989 98.2122 37.2418 19.2688 23.3557 31.0991 49.6324 12.2527 57.1354 17.072 10.9959 24.3833 10.2197 8.35082 6.45231 17.7155 8.94297 23.3904 4.9057 14.1361 9.12964 5.61498 4.41054 8.20373 27.8956 3.97279 14.5607 44.8576 8.47372
threshold=-3.3336187651522047 -1.4404172840101797 -2.2915491388384046 1.94373941317257 2.4853369031465102 -1.4570008548394349 -0.49404113822776946 0.55949952822577853 1.0835662036115601 0.036936223831077059 0.79829198676599011 -0.42129941313572344 0.97089014466536916 1.1348207095598803 1.4616398340261603 2.4823367197296151 1.7237433885134703 -1.3743327683016899 0.044216017376182255 -4.6526912882581284 0.2642585666012181 0.060020741911741053 -1.4907162982291198 -0.80973692506414641 2.3577993582813206 0.39220104035425657 0.74627998856935962 0.79662940785084213 -0.32764790441758646 -1.0531992664183949
decision_type=2 2 2 2 2 2 2 2 2 2 2 2 2 2 2 2 2 2 2 2 2 2 2 2 2 2 2 2 2 2
left_child=1 19 -2 -3 15 6 -6 -8 11 10 -10 12 14 -13 -7 23 17 18 -17 22 21 -21 -1 24 26 -26 -4 28 -28 -30
right_child=2 3 4 -5 5 8 7 -9 9 -11 -12 13 -14 -15 -16 16 -18 -19 -20 20 -22 -23 -24 -25 25 -27 27 -29 29 -31
leaf_value=0.094835287885405323 0.076046817631367697 -0.010087548591952411 -0.0081444830234890277 0.076733058292422163 -0.010073967608820273 -0.010057097439297256 -0.010077345318401694 0.15703569219890751 -0.010050304152210594 0.17599531744577199 0.087800050575784605 -0.0078257422646027756 0.11473137627588892 0.09728148412816387 0.084717740034503899 -0.010061284405984181 0.10152390413740817 -0.0065370800219928882 0.16395678982067058 0.13073067344945238 0.089798406952672757 0.098554843905570511 0.077193941856440407 -0.0096250127638856115 -0.010053172197478106 0.17768123763051924 0.20161962068097075 -0.0046829489010594668 -0.010048907018783915 0.090043102382680942
leaf_weight=15.754275456070905 1.3828773498535145 1.2928246557712548 31.559865944553167 0.79966631904244412 0.62559684878215194 0.78278220677748744 0.3088571792468453 0.41858876822516322 1.4022477455437172 0.2149427831172942 0.20427826978266228 13.501954729668791 0.2403578944504261 0.093144671991468253 0.10550013417378068 0.23559558996930796 0.17911672219634045 2.8489647386595598 0.1149174221791327 2.046566572040319 4.1628086064010859 1.5495279263705013 2.0375408753752735 261.82393945241347 0.30801989044994016 0.10652168188244104 0.14171978225931525 7.4577645733952522 0.55140437465161085 0.099906373769042989
leaf_count=171 30 224 6988 36 100 150 44 32 290 32 29 2919 35 15 17 41 14 618 16 33 62 18 28 58521 60 16 22 1623 114 20
internal_value=0 0.0902118 -0.00804702 0.0230918 -0.00840669 0.00167784 0.0416237 0.0860833 -0.00158887 0.022878 0.00239189 -0.00461566 0.0253773 -0.00710562 0.00119919 -0.00899765 0.00474511 -0.000672864 0.0469914 0.0957086 0.102344 0.116866 0.092815 -0.00915137 -0.00606845 0.0381876 -0.00652928 -0.000350993 0.0403873 0.00530449
internal_weight=0 27.6432 324.709 2.09249 323.326 17.8983 1.35304 0.727446 16.5452 1.82147 1.60653 14.7237 1.12864 13.5951 0.888282 305.428 3.37859 3.19948 0.350513 25.5507 7.7589 3.59609 17.7918 302.049 40.2252 0.414542 39.8107 8.2508 0.793031 0.651311
internal_count=72318 572 71746 260 71716 3663 176 76 3487 351 319 3136 202 2934 167 68053 689 675 57 312 113 51 199 67364 8843 76 8767 1779 156 134
is_linear=0
shrinkage=0.01


Tree=9
num_leaves=31
num_cat=0
split_feature=14 17 12 4 4 14 12 18 8 29 1 4 9 17 4 7 17 7 17 11 14 14 21 4 4 4 26 11 22 9
split_gain=2258.75 91.4571 84.7537 33.7841 19.165 21.9 27.0693 38.7752 15.428 15.2347 36.5962 46.9885 91.4986 16.7354 15.3072 6.6287 6.43184 6.40323 15.6524 8.39255 20.1645 4.43006 7.80934 25.3428 3.94943 13.7157 34.2514 8.22526 7.50678 7.73423
threshold=-3.3336187651522047 -2.2915491388384046 -1.4404172840101797 1.94373941317257 2.4853369031465102 -1.4570008548394349 -0.49404113822776946 0.55949952822577853 -0.11474371529410499 7.6150000000000011 -0.12590323532816497 3.2430479768164155 -1.0988970888799647 1.6214043890600351 4.9874019753404104 0.29368386050089651 2.1842461367649402 2.4823367197296151 1.7237433885134703 -1.3743327683016899 0.70459919910447111 -0.80973692506414641 2.3577993582813206 0.49057515518423106 0.74627998856935962 0.79662940785084213 -0.32764790441758646 1.2039135461577704 -0.9884207726656099 -1.1886876299440596
decision_type=2 2 2 2 2 2 2 2 2 2 2 2 2 2 2 2 2 2 2 2 2 2 2 2 2 2 2 2 2 2
left_child=2 -2 -1 -4 17 6 -6 -8 9 10 -7 12 -12 14 -11 -13 -10 21 19 20 -19 22 24 -24 -3 26 -26 -28 -27 -30
right_child=1 4 3 -5 5 8 7 -9 16 13 11 15 -14 -15 -16 -17 -18 18 -20 -21 -22 -23 23 -25 25 28 27 -29 29 -31
leaf_value=0.087826870684973551 0.070494282037899259 -0.0081286682607713615 -0.010086754969003584 0.071132251491656015 -0.010073227808946572 -0.010060314826683925 -0.010076565531341347 0.13361542234550527 -0.0083546229488131625 -0.010048543876252236 0.33857568044929048 0.083917052604844028 -0.010056355094212053 0.091918368390328284 0.073114449288447569 -0.010061659872613617 0.058471156817808546 -0.010068936993169462 0.091017359366226624 -0.0065139682530323687 0.14506570505581881 -0.0096205596592550523 -0.010052804580951473 0.16299235405832557 0.16345745322286365 0.074264333377093886 -0.010048593021233579 0.08747183113718944 0.074054532060750092 -0.0072627358166271038
leaf_weight=27.554248703643683 1.4763870239257801 31.306163769215345 1.280073465779423 0.85371522605419148 0.61941729346290231 0.66291326796635985 0.30580734275281674 0.4866495649330318 11.823369995225216 2.7897622622549543 0.17206869693472981 0.10638686455786228 0.13383126817644064 0.19589684577658761 0.24040051549673069 0.25482796411961317 0.14580422639846879 0.23936013877391893 0.1976930946111678 2.830574605613946 0.12890943512320518 259.33832917921245 0.31629212573170562 0.11555102095007896 0.17287295497953892 0.11859378078952421 0.55262364819645693 0.10253599379211664 0.11889914888888586 7.1857509654946625
leaf_count=312 30 6988 224 36 100 118 44 32 2610 591 18 15 25 15 35 45 15 39 14 618 18 58521 62 14 22 21 115 19 24 1578
internal_value=0 -0.00803128 0.083125 0.0224085 -0.00839283 0.00165052 0.0394531 0.078165 -0.00157923 0.0140816 0.0425607 0.0948504 0.186049 0.00234038 -0.00345074 0.0176174 -0.00754058 -0.00898792 0.00466518 -0.000671504 0.0442345 -0.00914284 -0.00604476 0.03625 -0.00650649 -0.000351777 0.0382513 0.00521388 -0.00465779 -0.00593912
internal_weight=0 322.138 29.688 2.13379 320.661 17.9371 1.41187 0.792457 16.5253 4.55609 1.33003 0.667115 0.3059 3.22606 3.03016 0.361215 11.9692 302.724 3.39654 3.19884 0.36827 299.328 39.9893 0.431843 39.5574 8.25128 0.828033 0.65516 7.42324 7.30465
internal_count=72318 71746 572 260 71716 3663 176 76 3487 862 221 103 43 641 626 60 2625 68053 689 675 57 67364 8843 76 8767 1779 156 134 1623 1602
is_linear=0
shrinkage=0.01


Tree=10
num_leaves=31
num_cat=0
split_feature=14 17 7 12 4 17 25 3 8 28 1 15 12 13 14 3 8 20 13 6 25 4 14 29 7 29 12 22 19 21
split_gain=2002.6 80.0252 48.9516 41.4434 26.4222 54.038 68.0577 30.7334 12.2215 12.2111 34.6323 23.5995 11.9449 20.0718 10.8823 10.2562 8.34635 7.47226 68.1145 83.1479 14.2057 27.2565 6.29045 41.3427 6.16461 6.00818 14.0571 5.19098 3.75672 6.12191
threshold=-3.3336187651522047 -2.2915491388384046 0.26656404423695756 -1.4404172840101797 2.4853369031465102 1.4626711922998252 0.34576211549802405 -2.0684603074247296 -0.14463694438828498 0.14420847101834852 -0.12590323532816497 1.2579211978082852 -2.7491087985345946 1.5935576695713602 -2.1327427537957599 -1.8295419745387198 -0.15161932302305847 -0.98718597090398441 -1.5601528447593598 -0.13141391108455747 -1.5282407692668747 0.67123787569682258 -1.5726651627322548 453.59000000000009 0.4921535884406571 183.58500000000004 0.17524279788640554 1.6026568078220602 -1.7173622816003147 0.23133445593681554
decision_type=2 2 2 2 2 2 2 2 2 2 2 2 2 2 2 2 2 2 2 2 2 2 2 2 2 2 2 2 2 2
left_child=2 -2 15 -4 17 8 7 -7 9 12 11 -11 13 -6 -10 -1 28 18 19 -3 21 -20 23 25 -5 -19 -27 -22 29 -14
right_child=1 4 3 24 5 6 -8 -9 14 10 -12 -13 16 -15 -16 -17 -18 22 20 -21 27 -23 -24 -25 -26 26 -28 -29 -30 -31
leaf_value=0.078762826130470323 0.067689097889250691 0.38637259647252659 0.08313690318764945 0.059464486013287646 -0.010056115957910996 0.099958886747158859 0.17767733293510399 -0.010090157974520978 0.049337740238419192 -0.010053236547208574 0.14064340239332684 0.12925637002419169 -0.010059011363726184 0.1682075442455179 -0.0083752406390146458 0.10068962326499709 0.083486987871018228 -0.0058836311871912992 -0.010045262268771723 -0.010044900726063797 -0.010046224835365093 0.20490493258261286 -0.0092707954784308159 0.14212470490023851 -0.010068419572324263 -0.010056622208672719 0.099751489125230852 0.04388817445146654 -0.010054905326546286 0.092255830052438981
leaf_weight=25.95922430977226 1.4005451202392567 0.10090005304664373 0.9571665916591886 0.14244279777631064 0.14456314314156804 0.36305386945605267 0.37248950172215689 0.84304400440305372 0.33588522300124601 0.79538164474070072 0.26527175912633516 0.1435485016554594 0.14561178395524699 0.11217335099354386 11.973049939610059 2.324217347893863 0.10684356698766784 9.6094981650821811 0.16122040012851346 0.11124862357974041 4.7769961520098141 0.093034300487488508 284.37134584458545 0.19708250276744443 1.2157925274223087 0.32387362513691265 0.18214635690674186 0.18537520756945003 2.6021354184485972 0.097730662208050489
leaf_count=261 26 20 32 12 27 29 25 120 28 157 31 24 27 18 2666 37 18 2125 36 25 1054 17 64630 30 219 66 39 38 514 18
internal_value=0 -0.0077353 0.0769458 0.0327395 -0.00806705 0.00359825 0.059526 0.0230363 -0.00168137 0.0125959 0.0397501 0.0112451 0.00240631 0.0678309 -0.00680037 0.0805647 -0.00328307 -0.0087784 0.00284709 0.178495 -0.00429613 0.0686071 -0.00899257 -0.00132034 -0.00277627 -0.00411511 0.0294698 -0.00803144 -0.00654116 0.0310325
internal_weight=0 319.814 30.5988 2.3154 318.414 18.3008 1.57859 1.2061 16.7222 4.41326 1.2042 0.93893 3.20906 0.256736 12.3089 28.2834 2.95232 300.113 5.42877 0.212149 5.21663 0.254255 294.684 10.3126 1.35824 10.1155 0.50602 4.96237 2.84548 0.243342
internal_count=72369 71808 561 263 71782 3702 174 149 3528 834 212 181 622 45 2694 298 577 68080 1190 45 1145 53 66890 2260 231 2230 105 1092 559 45
is_linear=0
shrinkage=0.01


Tree=11
num_leaves=31
num_cat=0
split_feature=14 17 10 11 4 4 17 10 1 8 28 15 1 14 15 29 20 13 4 25 17 24 14 29 0 19 29 13 6 25
split_gain=1862.73 75.1008 43.3118 64.3285 28.6008 26.211 49.7435 60.0431 75.7449 11.9055 11.2962 28.1982 23.5109 10.3222 10.1431 29.1728 7.41526 54.7927 59.853 13.0931 24.8118 7.21748 6.28413 35.405 6.32839 36.178 7.10615 32.6953 6.47171 5.91789
threshold=-3.3336187651522047 -2.2915491388384046 -1.8403568755655046 -0.39055401515722948 2.2481235423735004 2.4853369031465102 1.4626711922998252 -0.12896790046486298 -0.42015331504235043 -0.14463694438828498 0.14420847101834852 1.2579211978082852 -0.12590323532816497 -2.1327427537957599 -1.4262070631148849 7.7650000000000006 -0.98718597090398441 -1.5601528447593598 -0.20837954612638895 -1.5282407692668747 0.18082994311908054 1.0841028340241703 -1.5726651627322548 453.59000000000009 166768.00000000003 0.30008685569640353 106.605 1.0028675169100052 -1.2513060090616548 0.51792169365771212
decision_type=2 2 2 2 2 2 2 2 2 2 2 2 2 2 2 2 2 2 2 2 2 2 2 2 2 2 2 2 2 2
left_child=2 -2 29 -4 -5 16 9 8 -8 10 14 12 -12 -11 15 -7 17 18 -3 20 -19 -16 23 24 26 -26 -18 28 -28 -1
right_child=1 5 3 4 -6 6 7 -9 -10 13 11 -13 -14 -15 21 -17 22 19 -20 -21 -22 -23 -24 -25 25 -27 27 -29 -30 -31
leaf_value=0.072877873099961257 0.063291573761590877 -0.010055395113023311 0.27421833444928051 -0.010083746067875699 0.058252970833368098 0.13635159362130303 0.017208133401309052 0.00084019165745484567 0.21686310678059859 0.046575829733888387 -0.010052704907292711 0.15149600146246342 0.096437390344337223 -0.0083609192924849716 -0.010052311343351003 -0.010050593820647614 -0.0088762135290492081 -0.010047402793890698 0.29472698369240491 -0.0080151173177022382 0.18715871465685063 0.066010816919196275 -0.0092632457554625153 0.1223241703713166 -0.010045941473436631 0.21200798357118686 0.065317130409593541 0.19140532049307213 -0.0100500154960672 0.083653244380771097
leaf_weight=23.349263814743612 1.4824428558349598 0.12658462859690189 0.10548570798710022 1.3033119677565985 1.1553845610469577 0.20480448193848166 0.36523052304983139 0.91370488749816903 0.39608956081792712 0.35215940512717203 0.78750897059217084 0.18566283350810397 0.2814103509299456 11.874088519718493 2.4770155088044752 0.40577719686552882 8.5503009264357335 0.17206084029749025 0.13122975453734387 4.9232759345322838 0.10139696625992656 0.13136490434408177 281.7702175793238 0.22652712278068143 0.39579291269183237 0.090068303048610687 0.1326578869484365 0.099278625566512346 0.80723638786002883 6.5201209955848745
leaf_count=221 26 24 9 229 37 23 30 126 18 28 157 26 29 2666 500 84 1903 37 21 1092 16 15 64630 30 88 20 25 21 173 65
internal_value=0 -0.00771797 0.0718442 0.0324035 0.0220289 -0.00805119 0.00353971 0.0554916 0.121082 -0.00167117 0.0122873 0.0377409 0.0179825 -0.00677855 0.00236688 0.0390564 -0.00876703 0.0027852 0.145081 -0.00427424 0.0630758 -0.00622157 -0.00898277 -0.0013115 -0.00409124 0.0311181 -0.00587517 0.0188174 0.0005874 0.07523
internal_weight=0 317.384 32.4336 2.56418 2.4587 315.901 18.3748 1.67502 0.76132 16.6998 4.47354 1.25458 1.06892 12.2262 3.21896 0.610582 297.527 5.45455 0.257814 5.19673 0.273458 2.60838 292.072 10.3019 10.0753 0.485861 9.58947 1.03917 0.939894 29.8694
internal_count=72369 71808 561 275 266 71782 3702 174 48 3528 834 212 186 2694 622 107 68080 1190 45 1145 53 515 66890 2260 2230 108 2122 219 198 286
is_linear=0
shrinkage=0.01


Tree=12
num_leaves=31
num_cat=0
split_feature=14 17 10 11 17 29 23 19 12 8 23 24 17 23 25 25 0 14 29 1 25 1 11 24 11 20 13 24 22 1
split_gain=1741.15 70.7748 37.6484 45.4675 22.0559 22.9348 21.9089 39.7672 19.7874 15.4677 32.5714 29.5964 36.7555 20.3293 9.81967 31.7327 21.7739 8.68478 11.5522 8.61691 26.7636 19.6781 9.54838 8.00583 7.10739 5.68195 28.0788 34.2155 14.3009 21.9875
threshold=-3.3336187651522047 -2.2915491388384046 -1.8403568755655046 -0.39055401515722948 1.4036106212781403 0.74500000000000011 1.1593535135056301 1.3629040507522603 -1.4404172840101797 -0.43510789556546042 -0.14089651721412047 -0.27716193320119792 1.8334250657744902 -0.24516912370309749 0.50325543730301414 0.55099463406587512 54012.000000000007 -1.5726651627322548 505.14500000000004 1.8175471040787501 0.30940970616833857 1.8640000959020553 1.3271565075461551 0.63452343959184909 0.36943487881410003 -0.98718597090398441 -1.5601528447593598 0.13781555866775153 1.6026568078220602 -4.915157386093794
decision_type=2 2 2 2 2 2 2 2 2 2 2 2 2 2 2 2 2 2 2 2 2 2 2 2 2 2 2 2 2 2
left_child=2 -2 -1 -4 17 -6 9 24 -5 10 11 12 -7 -13 -11 16 -16 18 19 -3 21 -21 -23 -10 -8 26 27 -19 -28 -30
right_child=1 4 3 8 5 6 7 -9 23 14 -12 13 -14 -15 15 -17 -18 25 -20 20 -22 22 -24 -25 -26 -27 28 -29 29 -31
leaf_value=0.070452075830732874 0.059436752801403418 -0.0063717074805943576 0.20836227461557513 0.053709664527439971 0.13169424090014198 0.26816680730593123 -0.010073752333150976 0.21701703728345062 -0.010092819451057692 -0.0078177070257631608 -0.010059818483395006 -0.010077126975530657 0.049883351077961588 0.12956804205094885 0.15642530548219946 -0.01005014756700408 -0.01004560732039101 -0.010063008153513636 0.068234067787931937 0.1133700189694471 0.16925212854973937 -0.010048791739421891 0.092476872224512729 0.077013550963252825 0.086959146170819596 -0.0090373914918200713 -0.0079015706837533232 0.21466519285244456 -0.010052827796277329 0.17952260842983658
leaf_weight=31.567074090242386 1.5623912811279286 5.435999304521828 0.1372376345098022 1.0793128972873096 0.1409893543459465 0.14375237142667174 0.28236447274684984 0.13192921131849289 1.3083815043792113 8.944074943661688 1.0513055841438443 0.38333160942420363 0.16647247457876801 0.14318966073915351 0.23959086230024584 0.87738148681819439 0.11690949602052569 0.13757290970534075 0.25523068523034442 0.16187515482306469 0.1114356550388037 1.3218458713963626 0.097540305461734422 0.11476858519017707 0.1030312106013298 288.1208715531975 4.6612571021541944 0.13348785974085331 0.14567723218351603 0.10547849442809809
leaf_count=286 26 1167 9 29 19 22 49 7 223 1925 204 68 22 22 15 193 26 24 39 23 16 288 22 14 16 66519 1030 20 29 17
internal_value=0 -0.00770065 0.0674183 0.0311392 -0.00803534 0.00486037 0.00343926 0.0671646 0.0214201 0.000707067 0.0269949 0.0735513 0.151032 0.0279 -0.00416943 0.0222759 0.101833 -0.00858105 0.00213011 -0.000236624 0.0194658 0.00891001 -0.00300322 -0.00306821 0.0158669 -0.00885071 0.00152617 0.100608 -0.00394103 0.0695636
internal_weight=0 314.975 34.2068 2.6397 313.413 12.7243 12.5833 0.517325 2.50246 12.066 1.88805 0.836746 0.310225 0.526521 10.178 1.23388 0.3565 300.688 7.38393 7.1287 1.6927 1.58126 1.41939 1.42315 0.385396 293.304 5.18347 0.271061 4.91241 0.251156
internal_count=72369 71808 561 275 71782 2588 2569 72 266 2497 338 134 44 90 2159 234 41 69194 1555 1516 349 333 310 237 65 67639 1120 44 1076 46
is_linear=0
shrinkage=0.01


Tree=13
num_leaves=31
num_cat=0
split_feature=10 12 4 18 0 1 12 3 22 0 19 1 16 20 13 10 25 12 24 27 1 16 8 29 11 25 15 8 5 19
split_gain=1511.36 106.326 62.077 80.3036 65.0367 69.5635 56.2633 37.5599 24.0765 23.0601 21.5175 19.2696 12.4765 10.2175 41.3105 43.6794 11.7343 48.6758 9.60322 7.07553 35.4295 20.4953 6.60314 4.97421 22.494 48.0879 9.77645 3.78474 4.04969 3.40204
threshold=-2.1203200454975044 -1.8987576089955349 1.94373941317257 1.1306655093103652 1760.5000000000002 0.94215646646497364 -2.5063120541757393 0.42883219925655652 -0.18835161437287948 89641.000000000015 2.1772234695239305 -0.37130254072499541 -1.8013546428368847 -0.98718597090398441 -1.5601528447593598 0.26642500723530305 -0.95437428871776586 -0.36272112711157645 0.70765994905966012 -0.21262729796406146 0.036936223831077059 -0.83618875858701347 -0.062238514727521392 1.6950000000000001 1.1067317394037453 0.19743733746371803 1.2767692237608401 -0.33270369940225047 -2.8584731080188543 -1.8760653434318149
decision_type=2 2 2 2 2 2 2 2 2 2 2 2 2 2 2 2 2 2 2 2 2 2 2 2 2 2 2 2 2 2
left_child=1 27 13 6 -5 10 7 8 -4 -7 18 -3 -10 14 15 -2 17 -16 -6 20 21 22 -8 24 26 -26 -21 28 -1 -25
right_child=2 11 3 4 5 9 19 -9 12 -11 -12 -13 -14 -15 16 -17 -18 -19 -20 23 -22 -23 -24 29 25 -27 -28 -29 -30 -31
leaf_value=0.065505871079718003 0.2245413800729385 -0.010052364184226552 0.10764804382025026 0.76826876923937437 -0.010099260476707594 0.15498266200870631 0.1198124963038831 -0.010050899691793815 0.072859385831293644 0.068602809377038818 0.12377551217904874 0.065839346814515157 -0.010296865076237007 -0.0090138603119553611 0.20126662496679593 -0.010070814734273523 -0.0077734144612517618 -0.01005048638966124 0.093269159452270711 -0.010053212892982418 0.13768977448513955 -0.010055969210779258 0.034427826908211362 0.0082950953288275491 -0.010058863849389041 0.24631385688100199 0.092626606927894206 0.064379240925203349 0.08396248012785483 -0.010065818237533422
leaf_weight=2.5876551866531372 0.17045347206294525 2.3364279917441304 0.92594851367175579 0.012847835198044222 1.2684787581674757 0.6037141280248759 0.15396356070414186 0.78775363182649005 0.35509417951107025 0.63321120804175735 0.1490236623212694 0.39048320380970825 0.36680603818968582 281.61624278919771 0.14192775171250105 0.14848137507215142 4.3952021966688326 0.46990004274994124 0.096728938631713279 1.9467139961197935 0.2028935900889336 2.3788590300828316 0.2199749141000219 1.0888082217425203 0.19535515597090114 0.116969951428473 0.097365899942815193 28.651119194924831 2.1991761019453397 13.791452417150127
leaf_count=24 20 511 29 2 228 16 23 165 3 39 11 28 57 65562 22 23 972 99 16 409 26 486 20 222 38 12 18 260 23 3005
internal_value=0 0.0608578 -0.00742816 0.00755849 0.0584415 0.0551266 0.00134313 0.0467457 0.0738973 0.110763 0.00967924 0.000815037 0.0306067 -0.00875436 0.00496725 0.115317 -0.00206173 0.0389695 -0.00277531 -0.00413333 0.0101616 0.000762237 0.0695837 -0.00658458 0.00691486 0.0859562 -0.00516225 0.0657544 0.0739852 -0.00872233
internal_weight=0 36.1649 312.334 25.392 2.764 2.75116 22.628 2.4356 1.64785 1.23693 1.51423 2.72691 0.7219 286.942 5.32596 0.318935 5.00703 0.611828 1.36521 20.1924 2.95569 2.7528 0.373938 17.2367 2.35641 0.312325 2.04408 33.438 4.78683 14.8803
internal_count=72369 846 71523 4825 312 310 4513 254 89 55 255 539 60 66698 1136 43 1093 121 244 4259 555 529 43 3704 477 50 427 307 47 3227
is_linear=0
shrinkage=0.01


Tree=14
num_leaves=31
num_cat=0
split_feature=14 17 10 15 4 17 6 4 12 13 8 14 28 1 10 12 23 14 23 15 13 8 7 19 29 15 13 23 19 7
split_gain=1541.07 63.6079 28.9336 33.6557 25.8702 40.8698 40.2819 40.1416 13.9718 13.1375 11.556 12.3034 10.251 22.8827 29.964 10.6211 20.5581 7.25309 15.2915 43.3959 8.80114 7.19146 5.26499 23.3343 56.1626 5.09728 29.4373 43.9257 4.88572 6.12846
threshold=-3.3336187651522047 -2.2915491388384046 -1.8403568755655046 -0.14100120934987198 2.4853369031465102 1.4626711922998252 -0.14159585805661498 3.2430479768164155 -2.6089970653666845 -1.3136706449465099 -0.14463694438828498 -2.3189154979420947 0.14420847101834852 -0.12590323532816497 2.9277898408369754 -2.7491087985345946 0.10706149894634702 -0.80973692506414641 1.1593535135056301 1.1344569114641052 1.0878621554262302 -0.15161932302305847 2.9611700721158702 0.67538549520273106 754.42000000000019 1.2579211978082852 -0.88285869423650087 -0.13481860407815996 -2.1498469664689392 0.53175075177504516
decision_type=2 2 2 2 2 2 2 2 2 2 2 2 2 2 2 2 2 2 2 2 2 2 2 2 2 2 2 2 2 2
left_child=2 -2 -1 -4 17 10 7 -7 -5 -8 12 -12 15 14 -14 16 -6 18 25 20 -20 -17 -19 -24 -25 28 27 -27 29 -3
right_child=1 4 3 8 5 6 9 -9 -10 -11 11 -13 13 -15 -16 21 -18 22 19 -21 -22 -23 23 24 -26 26 -28 -29 -30 -31
leaf_value=0.062639002166273938 0.05308400648540617 -0.010043425113829798 0.080345391962442558 0.053010641893699396 -0.010055519623996978 0.17684541488183578 0.074115538431853104 0.035631972000974309 -0.010095245950755416 -0.0101136621358212 0.056691954776225989 -0.0083347536605547726 -0.010053902164230497 0.10534763469429181 0.1604888165293496 -0.0064918593763008438 0.16400931421509315 -0.0094798762428757993 -0.010054426870048408 0.19310166534037065 0.092390494699442091 0.072045099393365689 -0.010047743221904356 0.27376610897169179 -0.010045438546894367 0.19329977042836782 -0.010045051647331224 -0.01004406642315275 -0.0067788456883189629 0.10667775828806741
leaf_weight=34.78143322467804 1.7140064239501942 0.094714560545979931 0.87544059194624457 0.4648267598822714 0.16581830987706814 0.3737717466428877 0.23554200306534756 0.43624348193407059 1.4307510340586291 0.86602092441171286 0.29839046299457983 11.694683848880226 0.85032980423420668 0.34615535242482998 0.11722549330443144 2.80529886065051 0.11484589986503124 248.70905119879171 0.59788059256970782 0.14760394720360637 0.09754214296117425 0.12164795538410977 1.2863202467560757 0.10568699985742558 0.20490940660238266 0.19662908650934696 1.5854323990643013 0.23107455996796522 36.741782440338284 0.085672230459749699
leaf_count=286 26 22 37 6 31 16 13 39 232 106 18 2676 168 31 13 559 14 58684 118 18 15 18 283 19 46 32 358 53 8413 19
internal_value=0 -0.00766597 0.0601614 0.0290632 -0.00800348 0.00348631 0.0472608 0.100793 0.00537935 0.00789667 -0.00158069 -0.00671687 0.0120433 0.0355717 0.0106084 0.00240707 0.0611706 -0.0087333 -0.00476676 0.0373691 0.00431481 -0.00322775 -0.00936366 0.0087359 0.0865274 -0.00567909 0.00981637 0.0834396 -0.00652396 0.0453917
internal_weight=0 310.224 37.5525 2.77102 308.51 18.426 1.91158 0.810015 1.89558 1.10156 16.5144 11.9931 4.52132 1.31371 0.967555 3.20761 0.280664 290.084 39.7783 0.843027 0.695423 2.92695 250.306 1.59692 0.310596 38.9353 2.01314 0.427704 36.9222 0.180387
internal_count=72369 71808 561 275 71782 3702 174 55 238 119 3528 2694 834 212 181 622 45 68080 9048 151 133 577 59032 348 65 8897 443 85 8454 41
is_linear=0
shrinkage=0.01


end of trees

feature_importances:
V17=46
V4=41
V14=40
V12=24
V1=20
V7=19
V10=19
V15=19
Amount=19
V8=18
V21=16
V25=16
V11=15
V26=15
V23=14
V13=12
V19=12
V20=12
V24=10
V16=9
V9=7
V28=7
V2=6
V3=6
V22=6
Time=5
V6=5
V18=5
V27=5
V5=2

parameters:
[boosting: gbdt]
[objective: binary]
[metric: binary_logloss]
[tree_learner: serial]
[device_type: gpu]
[data_sample_strategy: bagging]
[data: ]
[valid: ]
[num_iterations: 15]
[learning_rate: 0.01]
[num_leaves: 31]
[num_threads: 0]
[seed: 0]
[deterministic: 0]
[force_col_wise: 1]
[force_row_wise: 0]
[histogram_pool_size: -1]
[max_depth: -1]
[min_data_in_leaf: 20]
[min_sum_hessian_in_leaf: 0.001]
[bagging_fraction: 0.8]
[pos_bagging_fraction: 1]
[neg_bagging_fraction: 1]
[bagging_freq: 5]
[bagging_seed: 3]
[feature_fraction: 0.9]
[feature_fraction_bynode: 1]
[feature_fraction_seed: 2]
[extra_trees: 0]
[extra_seed: 6]
[early_stopping_round: 0]
[first_metric_only: 0]
[max_delta_step: 0]
[lambda_l1: 0]
[lambda_l2: 0]
[linear_lambda: 0]
[min_gain_to_split: 0]
[drop_rate: 0.1]
[max_drop: 50]
[skip_drop: 0.5]
[xgboost_dart_mode: 0]
[uniform_drop: 0]
[drop_seed: 4]
[top_rate: 0.2]
[other_rate: 0.1]
[min_data_per_group: 100]
[max_cat_threshold: 32]
[cat_l2: 10]
[cat_smooth: 10]
[max_cat_to_onehot: 4]
[top_k: 20]
[monotone_constraints: ]
[monotone_constraints_method: basic]
[monotone_penalty: 0]
[feature_contri: ]
[forcedsplits_filename: ]
[refit_decay_rate: 0.9]
[cegb_tradeoff: 1]
[cegb_penalty_split: 0]
[cegb_penalty_feature_lazy: ]
[cegb_penalty_feature_coupled: ]
[path_smooth: 0]
[interaction_constraints: ]
[verbosity: 1]
[saved_feature_importance_type: 0]
[use_quantized_grad: 0]
[num_grad_quant_bins: 4]
[quant_train_renew_leaf: 0]
[stochastic_rounding: 1]
[linear_tree: 0]
[max_bin: 255]
[max_bin_by_feature: ]
[min_data_in_bin: 3]
[bin_construct_sample_cnt: 200000]
[data_random_seed: 1]
[is_enable_sparse: 1]
[enable_bundle: 1]
[use_missing: 1]
[zero_as_missing: 0]
[feature_pre_filter: 1]
[pre_partition: 0]
[two_round: 0]
[header: 0]
[label_column: ]
[weight_column: ]
[group_column: ]
[ignore_column: ]
[categorical_feature: ]
[forcedbins_filename: ]
[precise_float_parser: 0]
[parser_config_file: ]
[objective_seed: 5]
[num_class: 1]
[is_unbalance: 0]
[scale_pos_weight: 1]
[sigmoid: 1]
[boost_from_average: 1]
[reg_sqrt: 0]
[alpha: 0.9]
[fair_c: 1]
[poisson_max_delta_step: 0.7]
[tweedie_variance_power: 1.5]
[lambdarank_truncation_level: 30]
[lambdarank_norm: 1]
[label_gain: ]
[lambdarank_position_bias_regularization: 0]
[eval_at: ]
[multi_error_top_k: 1]
[auc_mu_weights: ]
[num_machines: 1]
[local_listen_port: 12400]
[time_out: 120]
[machine_list_filename: ]
[machines: ]
[gpu_platform_id: -1]
[gpu_device_id: -1]
[gpu_use_dp: 0]
[num_gpu: 1]

end of parameters

pandas_categorical:[]
