tree
version=v4
num_class=1
num_tree_per_iteration=1
label_index=0
max_feature_idx=29
objective=binary sigmoid:1
feature_names=Time V1 V2 V3 V4 V5 V6 V7 V8 V9 V10 V11 V12 V13 V14 V15 V16 V17 V18 V19 V20 V21 V22 V23 V24 V25 V26 V27 V28 Amount
feature_infos=[0:172788] [-56.407509631328999:2.45188848995359] [-72.715727562930297:22.057728990490901] [-48.325589362395398:4.2261084802839699] [-5.6006071412151002:16.8753440335975] [-113.743306711146:34.801665876668601] [-26.1605059358433:73.301625545964598] [-43.5572415712451:120.589493945238] [-50.943368867702297:19.587772623440401] [-13.4340663182301:10.392888824678501] [-24.588262437247501:15.2360282040071] [-4.7974734647975703:12.018913181619901] [-18.683714633344302:4.84645240859009] [-4.0086397920715804:7.1268829585937601] [-19.214325490261398:7.6677257505581897] [-4.49894467676621:8.8777415977427694] [-14.129854517493101:17.315111517627798] [-25.162799369324802:9.2535262504728504] [-9.3351930790532105:5.0410691854118399] [-7.2135274301775896:5.5919714273355803] [-54.497720494566003:39.420904248219898] [-22.797603905551899:27.202839157315399] [-10.933143697655:8.3619851916843508] [-44.807735203791303:22.528411689774899] [-2.8366269187034101:4.5845491368981701] [-10.2953970749851:7.5195886787091597] [-2.60455055280817:3.5173456116238002] [-9.8458076927789797:31.612198106136301] [-15.4300839055349:33.847807818883098] [0:25691.16]
tree_sizes=3384 3408 3423 3421 3406

Tree=0
num_leaves=31
num_cat=0
split_feature=14 12 7 0 26 7 2 17 12 1 3 0 9 26 6 4 17 1 6 29 26 22 7 1 16 24 18 25 8 14
split_gain=56284.1 71710.2 4075.54 1762.49 3545.19 1169.08 1334.05 475.859 4987.17 377.394 198.905 621.751 179.483 143.044 260.327 20.4425 82.7664 289.58 376 26.8671 21.5497 16.6519 10.5842 77.8811 21.2002 21.1624 19.8622 9.21397 19.0282 7.44476
threshold=-3.6531718038630747 -2.2021987783623245 0.72198899562412466 32240.500000000004 -0.22364126872626397 0.40288221065454805 2.7919390940259055 -1.6145640201436746 -2.3784428871112095 -1.6908817683940096 -3.7564023000441193 73141.500000000015 -2.0601229094551443 -0.21080136715142447 -2.0223475543303597 2.7361268606436853 1.6200933052512752 0.80430117569886217 -1.0000000180025095e-35 346.26500000000004 1.4051502125135953 1.7828618879875702 1.2780897602827903 0.17580442560804652 -1.0198330839355347 1.0815396863590052 1.9175087966238502 -1.8462182937004699 0.62615752217415854 -0.81682323935672285
decision_type=2 2 2 2 2 2 2 2 2 2 2 2 2 2 2 2 2 2 2 2 2 2 2 2 2 2 2 2 2 2
left_child=1 2 3 4 -1 6 -3 8 -2 -6 13 -12 -7 14 -5 29 20 19 -19 -18 21 22 26 24 -24 -26 27 28 -17 -9
right_child=7 5 -4 10 9 12 -8 15 -10 -11 11 -13 -14 -15 -16 16 17 18 -20 -21 -22 -23 23 -25 25 -27 -28 -29 -30 -31
leaf_value=-4.7920068056545988 -3.4835426362623276 -4.0593038735598572 -4.3692726286195906 -1.7563729233432026 -0.60492152342553585 -5.7224675435944006 -6.362162340219915 -6.3574313544164998 -6.3621645617132234 -1.9133071972201607 -0.60496926423250219 -2.332096487785738 -6.3621624291268883 -0.60491341493004391 -0.60492536247652406 -6.3621623446167037 -6.3621623546256112 -5.2729553517745975 -6.3621623477045928 -6.0743004967297232 -6.1318728765225075 -6.1822486324443524 -6.1222774695843789 -5.919297981528012 -6.3621623480939515 -6.1407301821882161 -6.1565467334014761 -6.3597869995416936 -6.0743004909946352 -6.3618237272691269
leaf_weight=0.038212774554267526 0.06600386812351644 0.052108832169323049 0.045160551788285375 0.034738887101411819 0.052108308998867869 0.046897449996322393 0.048634442035108805 44.387597550870851 0.68261956260539491 0.038212288403883576 0.052108625648543239 0.034738886170089245 0.67740829871036112 0.19974829256534576 0.045160551555454731 0.067740840371691813 0.48634440568275827 0.064266939181834459 0.062529995338991284 0.034738886170089245 0.043423607014120402 0.055582199245692077 0.041686663171276339 0.045160552486777195 0.97442573378793962 0.045160554815083742 0.048634433420375767 12.62931807385757 0.034738885704427958 295.33613254851662
leaf_count=22 38 30 26 20 30 27 28 25555 393 22 30 20 390 115 26 39 280 37 36 20 25 32 24 26 561 26 28 7271 20 170032
internal_value=-6.35214 -4.32589 -1.4935 -1.23114 -2.23871 -6.18036 -5.17102 -6.36022 -6.10837 -1.15847 -0.87778 -1.29582 -6.32074 -0.747954 -1.10555 -6.36075 -6.34918 -6.23868 -5.8101 -6.34297 -6.3543 -6.35499 -6.35568 -6.32601 -6.34332 -6.35235 -6.35825 -6.35902 -6.26458 -6.36125
internal_weight=0 1.36524 0.540189 0.495029 0.128533 0.825049 0.100743 355.106 0.748623 0.0903206 0.366495 0.0868475 0.724306 0.279648 0.0798994 354.357 14.6338 0.64788 0.126797 0.521083 13.9859 13.9424 13.8869 1.10643 1.06127 1.01959 12.7804 12.7318 0.10248 339.724
internal_count=205229 786 311 285 74 475 58 204443 431 52 211 50 417 161 46 204012 8425 373 73 300 8052 8027 7995 637 611 587 7358 7330 59 195587
is_linear=0
shrinkage=1


Tree=1
num_leaves=31
num_cat=0
split_feature=14 19 4 22 10 3 7 20 7 1 19 17 20 17 11 8 19 0 0 23 17 23 18 21 24 17 8 25 23 23
split_gain=1003.49 47.915 40.7579 91.331 24.3619 48.0694 79.4943 190.018 46.0447 22.9706 18.4641 49.2951 156.496 34.6053 25.2408 45.577 19.085 17.0343 15.8256 15.7914 14.7569 31.4595 60.385 25.3651 14.4968 12.6234 29.2524 80.5163 29.4567 97.528
threshold=-2.6546112211851796 -2.4541881659084148 4.770037140861791 1.7828618879875702 1.0647826298843504 -1.4558436777737749 0.3921712496813326 -0.022189627808286799 -1.9212114753670948 0.51129294187958663 -1.5215705864340447 0.87733452892849406 -0.16807108341209245 1.7186779841322002 1.9787306948509553 -0.50572321528734188 -2.1627133864691346 165678.50000000003 10820.500000000002 0.12175160653991152 -1.6145640201436746 0.17019758386862202 -1.6231958163388447 -2.6329555273541496 1.0815396863590052 1.4059810033241351 -0.43715697721466396 -1.5231981637982548 -0.14254733742726397 -0.25152122318004794
decision_type=2 2 2 2 2 2 2 2 2 2 2 2 2 2 2 2 2 2 2 2 2 2 2 2 2 2 2 2 2 2
left_child=1 -1 20 9 5 10 7 -7 -9 17 11 -3 -13 14 15 -12 -14 24 -16 -17 21 -2 -23 -24 -4 -22 27 -27 29 -29
right_child=2 4 3 -5 -6 6 -8 8 -10 -11 13 12 16 -15 18 19 -18 -19 -20 -21 25 22 23 -25 -26 26 -28 28 -30 -31
leaf_value=0.15067552465760092 -0.010116271714165456 0.038001034465667098 -0.010036780431177734 0.30322426258994062 -0.01004079723035956 0.43162026767212808 -0.010017995740449244 0.18443813312053686 0.039355351956119944 0.2673310305683364 0.1430833184299343 0.61120048724462872 0.1643536772081301 -0.0030124915140533775 0.060126128215991011 0.030799985909155274 0.02812672377411642 0.1902966965809571 0.032473594783707829 0.085997815639867053 -0.009155896102181425 0.33574917903088586 0.28337003408274897 -0.010171548497561619 0.14564428691522899 0.48087690313747444 -0.0048039958950293641 0.017282123703657854 -0.00015483901746851796 0.35860807248415333
leaf_weight=0.36559078097343345 0.67144830548204371 1.7086697000777342 0.86787010147236177 0.12761647999286641 1.1349337178980921 0.18110089947003882 0.57455490226857353 0.30754755588714022 0.75763023190665868 0.036055123549886048 0.5781124115455899 0.064384294673800579 0.17109781806357216 2.4266611633356652 2.1713837379356837 1.9858123183948913 0.25778985035140034 0.049921434954740107 44.162108123884536 0.70134380680974562 336.66811114759184 0.086691129952669144 0.034056104719638824 0.21704972139559686 0.064241129439324141 0.040741929784417041 9.590178477810694 0.36630596953909844 1.0139448213158164 0.10851079528219987
leaf_count=36 264 10 469 24 546 36 327 8 55 19 21 20 19 865 16 78 67 28 242 12 195559 3 4 63 34 23 5521 211 588 61
internal_value=0 0.0365575 -0.00850326 0.0510434 0.0358279 0.0367568 0.0872959 0.132159 0.0812449 0.0194328 0.0350598 0.0634232 0.151484 0.0338593 0.0356633 0.0625355 0.0824723 0.0103312 0.0337695 0.0452065 -0.00869885 0.0294841 0.108199 0.0296399 0.000692763 -0.00880966 0.00167335 0.0422871 0.0302845 0.095286
internal_weight=0 57.5487 349.943 1.1457 57.1831 56.0482 1.82083 1.24628 1.06518 1.01809 54.2274 2.20194 0.493272 52.0254 49.5988 3.26527 0.428888 0.982033 46.3335 2.68716 348.797 1.00925 0.337797 0.251106 0.932111 347.788 11.1197 1.5295 1.48876 0.474817
internal_count=205229 2358 202871 574 2322 1776 426 99 63 550 1350 116 106 1234 369 111 86 531 258 90 202297 334 70 67 503 201963 6404 883 860 272
is_linear=0
shrinkage=0.01


Tree=2
num_leaves=31
num_cat=0
split_feature=14 19 4 16 21 1 10 3 7 20 7 24 17 15 7 15 20 12 12 7 21 17 23 18 21 17 8 8 4 10
split_gain=973.116 41.4218 38.4086 63.9802 84.7952 25.1253 23.1521 38.9669 63.8175 93.0951 33.8672 19.4114 17.4076 34.6995 31.1752 57.8514 29.6788 18.1401 84.9664 22.808 16.9629 14.2234 26.9205 37.4121 18.6037 12.5575 27.2821 50.8202 26.5085 100.733
threshold=-2.6546112211851796 -2.4541881659084148 4.770037140861791 -0.4803246004716229 -0.40829919913576795 0.51129294187958663 1.0647826298843504 -1.4558436777737749 0.3921712496813326 -0.022189627808286799 -1.9212114753670948 0.56844524979057065 1.9829487252059803 -1.0683995979001348 -0.82574682881411332 -1.0683995979001348 -2.7766623200140446 -3.5393880852139694 -2.6835976898525145 -0.069742921724787882 0.68294900468069608 -1.6145640201436746 0.17019758386862202 -1.6231958163388447 -2.6329555273541496 1.4059810033241351 -0.43715697721466396 -0.44867702192985542 2.7361268606436853 -0.43098011025228095
decision_type=2 2 2 2 2 2 2 2 2 2 2 2 2 2 2 2 2 2 2 2 2 2 2 2 2 2 2 2 2 2
left_child=1 -1 21 4 -4 -5 7 12 9 -9 -11 -6 14 -14 -3 -16 -17 -18 -19 -20 -15 22 -2 -24 -25 -23 27 -27 -28 -30
right_child=2 6 3 5 11 -7 -8 8 -10 10 -12 -13 13 20 15 16 17 18 19 -21 -22 25 23 24 -26 26 28 -29 29 -31
leaf_value=0.13745966624361439 -0.010115799636016524 0.03351865100467423 0.35691263380661153 -0.010018703370510158 -0.010113726253724618 0.25283070016937936 -0.010040394106551847 0.28043705279223913 -0.010017816410253075 0.15542948939188075 0.038136237263095833 0.23112197855326858 0.19232154398551726 -0.0028514389365449661 0.22590066001272843 0.40331953356556199 0.034906547222291001 0.25808804583098316 0.28595503858374921 0.019280841696927991 0.17748733258098409 -0.0091478401930213532 0.24284630012893074 0.2145363985001682 -0.010169851560996203 0.028743085806207547 -0.0089052479315434776 0.32689172027084246 0.41556037822842812 0.010774239972260137
leaf_weight=0.39656376838683982 0.66480490425601491 49.321185410022736 0.13614081498235464 0.82505457650404312 0.17048913473263383 0.038042921805754304 1.1236855979077507 0.27526900754310202 0.56884812330827106 0.36098743439652015 0.77394913090392825 0.041469451389275491 0.098768753465261372 2.3740517996484449 0.2111367211909968 0.024189598858357253 2.0066598597913989 0.22312862984836201 0.033777318079956875 0.63524455623700826 0.053329885122366139 333.61025642172899 0.11844797059893608 0.044467214494943619 0.21492567798122764 1.5479119867086408 8.9930617755744571 0.059362845495342209 0.070491017308086157 0.48082468588836569
leaf_count=36 264 273 14 456 67 15 546 36 327 8 55 22 12 827 19 7 11 6 8 161 26 195559 3 4 63 851 5242 32 33 246
internal_value=0 0.0356051 -0.00849048 0.0477239 0.162168 0.00156696 0.0349097 0.0357964 0.0793918 0.115458 0.0754435 0.0370838 0.0342272 0.00858669 0.035462 0.0660441 0.0544972 0.0515864 0.0891034 0.0327446 0.00111063 -0.00868738 0.0281914 0.0955924 0.0283511 -0.00879891 0.0016397 0.0397549 -0.0047789 0.06253
internal_weight=0 58.4808 347.016 1.2112 0.348099 0.863097 58.0842 56.9605 1.97905 1.41021 1.13494 0.211959 54.9815 2.52615 52.4553 3.13414 2.923 2.89881 0.892151 0.669022 2.42738 345.805 1.04265 0.377841 0.259393 344.762 11.1517 1.60727 9.54438 0.551316
internal_count=205229 2358 202871 574 103 471 2322 1776 426 99 63 89 1350 865 485 212 193 186 175 169 853 202297 334 70 67 201963 6404 883 5521 279
is_linear=0
shrinkage=0.01


Tree=3
num_leaves=31
num_cat=0
split_feature=14 19 17 18 10 3 17 15 8 8 17 19 15 11 19 8 17 8 2 2 12 24 20 28 12 20 1 21 25 1
split_gain=944.585 36.2836 35.0211 60.6201 22.0431 32.2385 41.1861 68.2949 64.1742 38.4435 16.7524 29.9147 40.7163 28.0715 55.2703 35.2189 14.0838 32.0617 54.8567 165.205 20.5487 58.24 51.8908 19.6389 19.4903 12.7139 10.5641 10.1778 43.0904 170.368
threshold=-2.6546112211851796 -2.4541881659084148 -1.6145640201436746 -2.5192002313967294 1.0647826298843504 -1.4558436777737749 2.9874768673966003 0.62184546422265763 -2.7859723420390243 0.5706565110263091 1.9829487252059803 -1.8801758624574247 -0.56069966099031243 1.9787306948509553 -1.1505400793166598 -0.52484025656116085 1.4059810033241351 -0.43715697721466396 -0.35083460048404341 -0.59970112906127293 -0.31520620077583644 -0.76970145681108693 -0.97262504928968585 0.21312961581398202 -0.37783798791350448 3.5925417865942255 1.6893925535655401 -0.37502870072184696 0.34908476778705155 1.0874658945359801
decision_type=2 2 2 2 2 2 2 2 2 2 2 2 2 2 2 2 2 2 2 2 2 2 2 2 2 2 2 2 2 2
left_child=1 -1 3 -2 5 10 8 -8 -7 26 13 12 -12 14 -3 -16 -4 18 19 23 21 -20 -23 -18 -24 -5 -10 28 -19 -30
right_child=2 4 16 25 -6 6 7 -9 9 -11 11 -13 -14 -15 15 -17 17 27 20 -21 -22 22 24 -25 -26 -27 -28 -29 29 -31
leaf_value=0.12669300461616356 0.17825726933089819 0.24479443248007457 -0.0090513223080479141 8.6240292286238521e-06 -0.010039994812279742 0.30917291973827321 0.29178406505453575 -0.010134219556598547 0.0046141053549723131 0.11840096064506916 0.2502714676961057 -0.0026484748839994995 -0.010044510378771489 0.032645222373801991 0.11699642056508909 0.037614904777458047 -0.010021782658071448 -0.010019612825762657 0.39340573139533996 0.80308911595620447 -0.010018981475272177 0.31188057392774882 -0.010020326380851598 0.25280279040955245 0.20243711827211705 0.14514046420060447 0.12982362795892072 -0.0077824616657360471 -0.010017448097130286 0.74258995815939277
leaf_weight=0.42580431699752708 0.26480591297149647 0.15690194966737214 331.38398181600496 0.98363918066024669 1.1125488602556277 0.093894267571158818 0.19861393002793182 0.12030346365645528 1.1768732498167072 0.4638565251370893 0.1151820404920727 2.3101833304390342 0.12560957251116267 49.425460278987885 0.69359535840340036 2.8780699589988203 0.11247591860592365 0.56836111575830628 0.049575462588109076 0.036894729360938183 0.86748365568928298 0.062131100217811763 0.52260599890723825 0.03804798808414489 0.047068195533938595 0.064306676387786865 0.071476767887361237 8.9487866458948684 0.12256961257662624 0.039859611308202147
leaf_count=36 9 39 195995 331 546 6 14 42 335 13 14 799 52 270 31 145 54 314 26 16 467 33 272 18 24 12 16 5216 71 13
internal_value=0 0.0347144 -0.0084777 0.0430741 0.0340499 0.0348981 0.0731257 0.177893 0.0546261 0.0406672 0.0334399 0.00840723 0.114477 0.0346412 0.0610999 0.0530303 -0.00867511 0.0022456 0.0418148 0.203401 0.0222622 0.0633602 0.0374627 0.0564125 0.00753355 0.00891457 0.0117832 -0.00485216 0.0310305 0.17467
internal_weight=0 59.3684 344.113 1.31275 58.9426 57.83 2.12502 0.318917 1.8061 1.71221 55.705 2.55097 0.240792 53.154 3.72857 3.57167 342.8 11.4159 1.73628 0.187419 1.54886 0.681381 0.631805 0.150524 0.569674 1.04795 1.24835 9.67958 0.73079 0.162429
internal_count=205229 2358 202871 352 2322 1776 426 56 370 364 1350 865 66 485 215 176 202519 6524 910 88 822 355 329 72 296 343 351 5614 398 84
is_linear=0
shrinkage=0.01


Tree=4
num_leaves=31
num_cat=0
split_feature=14 4 16 10 19 1 2 10 3 7 26 7 17 19 15 11 15 7 0 28 0 17 23 10 17 4 19 10 1 25
split_gain=917.674 35.2626 46.081 58.9927 32.0974 25.7872 23.1898 21.0223 26.4542 45.8911 43.5252 22.0385 16.1725 25.8399 28.1724 24.81 65.9601 26.9131 15.9106 24.9035 15.503 13.3842 21.8447 21.8708 12.4008 21.6194 76.9295 45.022 100.159 23.4776
threshold=-2.6546112211851796 4.770037140861791 -0.4803246004716229 1.5709133239010804 -2.4541881659084148 0.60243467367832759 5.4137040452664609 1.0647826298843504 -1.4558436777737749 0.3921712496813326 -0.28227694329041692 -2.0751034720735397 1.9829487252059803 -1.8801758624574247 -0.56069966099031243 1.9787306948509553 -1.0683995979001348 -3.4194333798942549 122730.50000000001 0.16272448436673853 12198.000000000002 -1.6145640201436746 0.17019758386862202 -1.4064940886640098 1.4059810033241351 2.4427228860317656 1.6671456516045151 -0.55365422253444241 -0.4812027310093499 -1.5231981637982548
decision_type=2 2 2 2 2 2 2 2 2 2 2 2 2 2 2 2 2 2 2 2 2 2 2 2 2 2 2 2 2 2
left_child=4 21 3 6 -1 -4 -3 8 12 10 -10 -12 15 14 -14 16 -6 -18 -19 -20 -17 22 -2 -24 -23 29 27 28 -27 -26
right_child=1 2 5 -5 7 -7 -8 -9 9 -11 11 -13 13 -15 -16 20 17 18 19 -21 -22 24 23 -25 25 26 -28 -29 -30 -31
leaf_value=0.1176690079824031 -0.010115406349508612 -0.010111982937766941 -0.010018876635131416 0.37775230632029966 0.26876204834877654 0.25938708967924257 0.15085536285840129 -0.010039598525383171 0.17304568615569524 -0.010018112100658052 0.14310160114130763 0.039207494119354411 0.19463052568056477 -0.0026277015797083847 -0.010044102726840358 0.05084965577557022 0.17732975375869803 0.023363119209541153 0.041674569118370391 0.12394663072679606 0.030340912442298258 -0.0091316189711622194 0.13579278563691097 -0.010115299332562581 0.12055888405353452 -0.010027681174237081 0.46935503239470378 -0.010023403109468906 0.51261031083077224 -0.004170570514550693
leaf_weight=0.45372509956359763 0.66088480269536265 0.17277953901793808 0.83635476569179334 0.077364450320601463 0.14335852139629457 0.037105840630829334 0.18568342924118042 1.1015219304244954 0.48988655698485661 0.57231490383855987 0.25962539762258519 0.95595597452484016 0.14643591362982988 2.3051720499061079 0.12436484359204403 4.0074543647933742 0.15933232381939921 1.7825304203433909 1.2647442768793551 0.51886161335278291 45.928384036524221 327.61392204009462 0.27333393692970276 0.16459437692537904 0.15316164214163919 0.10155485407449305 0.041720570996403694 0.61820375453680831 0.057389055145904422 10.261691707652059
leaf_count=36 264 63 464 37 18 7 3 546 23 327 5 71 14 799 52 26 3 41 128 25 244 195559 6 64 77 40 19 313 8 5947
internal_value=0 -0.00846489 0.0433321 0.127318 0.0338782 0.00142587 0.0732689 0.0332421 0.0340548 0.0674659 0.0934677 0.0613973 0.032705 0.00822775 0.100634 0.0338769 0.058273 0.0501732 0.0444919 0.065608 0.0319868 -0.00866438 0.0261798 0.0809536 -0.00877737 0.00155363 0.0510279 0.0285703 0.178679 -0.00233629
internal_weight=0 341.256 1.30929 0.435827 60.2137 0.873461 0.358463 59.7599 58.6584 2.27778 1.70547 1.21558 56.3806 2.57597 0.270801 53.8047 3.86883 3.72547 3.56614 1.78361 49.9358 339.946 1.09881 0.437928 338.848 11.2337 0.818868 0.777148 0.158944 10.4149
internal_count=205229 202871 574 103 2358 471 66 2322 1776 426 99 76 1350 865 66 485 215 197 194 153 270 202297 334 70 201963 6404 380 361 48 6024
is_linear=0
shrinkage=0.01


end of trees

feature_importances:
V17=16
V7=12
V19=10
V1=9
V8=9
V10=8
Time=6
V4=6
V12=6
V14=6
V15=6
V20=6
V23=6
V3=5
V21=5
V2=4
V18=4
V24=4
V25=4
V26=4
V11=3
V16=3
V6=2
V22=2
V28=2
V9=1
Amount=1

parameters:
[boosting: gbdt]
[objective: binary]
[metric: binary_logloss]
[tree_learner: serial]
[device_type: gpu]
[data_sample_strategy: bagging]
[data: ]
[valid: ]
[num_iterations: 5]
[learning_rate: 0.01]
[num_leaves: 31]
[num_threads: 0]
[seed: 0]
[deterministic: 0]
[force_col_wise: 1]
[force_row_wise: 0]
[histogram_pool_size: -1]
[max_depth: -1]
[min_data_in_leaf: 20]
[min_sum_hessian_in_leaf: 0.001]
[bagging_fraction: 0.8]
[pos_bagging_fraction: 1]
[neg_bagging_fraction: 1]
[bagging_freq: 5]
[bagging_seed: 3]
[feature_fraction: 0.9]
[feature_fraction_bynode: 1]
[feature_fraction_seed: 2]
[extra_trees: 0]
[extra_seed: 6]
[early_stopping_round: 0]
[first_metric_only: 0]
[max_delta_step: 0]
[lambda_l1: 0]
[lambda_l2: 0]
[linear_lambda: 0]
[min_gain_to_split: 0]
[drop_rate: 0.1]
[max_drop: 50]
[skip_drop: 0.5]
[xgboost_dart_mode: 0]
[uniform_drop: 0]
[drop_seed: 4]
[top_rate: 0.2]
[other_rate: 0.1]
[min_data_per_group: 100]
[max_cat_threshold: 32]
[cat_l2: 10]
[cat_smooth: 10]
[max_cat_to_onehot: 4]
[top_k: 20]
[monotone_constraints: ]
[monotone_constraints_method: basic]
[monotone_penalty: 0]
[feature_contri: ]
[forcedsplits_filename: ]
[refit_decay_rate: 0.9]
[cegb_tradeoff: 1]
[cegb_penalty_split: 0]
[cegb_penalty_feature_lazy: ]
[cegb_penalty_feature_coupled: ]
[path_smooth: 0]
[interaction_constraints: ]
[verbosity: 1]
[saved_feature_importance_type: 0]
[use_quantized_grad: 0]
[num_grad_quant_bins: 4]
[quant_train_renew_leaf: 0]
[stochastic_rounding: 1]
[linear_tree: 0]
[max_bin: 255]
[max_bin_by_feature: ]
[min_data_in_bin: 3]
[bin_construct_sample_cnt: 200000]
[data_random_seed: 1]
[is_enable_sparse: 1]
[enable_bundle: 1]
[use_missing: 1]
[zero_as_missing: 0]
[feature_pre_filter: 1]
[pre_partition: 0]
[two_round: 0]
[header: 0]
[label_column: ]
[weight_column: ]
[group_column: ]
[ignore_column: ]
[categorical_feature: ]
[forcedbins_filename: ]
[precise_float_parser: 0]
[parser_config_file: ]
[objective_seed: 5]
[num_class: 1]
[is_unbalance: 0]
[scale_pos_weight: 1]
[sigmoid: 1]
[boost_from_average: 1]
[reg_sqrt: 0]
[alpha: 0.9]
[fair_c: 1]
[poisson_max_delta_step: 0.7]
[tweedie_variance_power: 1.5]
[lambdarank_truncation_level: 30]
[lambdarank_norm: 1]
[label_gain: ]
[lambdarank_position_bias_regularization: 0]
[eval_at: ]
[multi_error_top_k: 1]
[auc_mu_weights: ]
[num_machines: 1]
[local_listen_port: 12400]
[time_out: 120]
[machine_list_filename: ]
[machines: ]
[gpu_platform_id: -1]
[gpu_device_id: -1]
[gpu_use_dp: 0]
[num_gpu: 1]

end of parameters

pandas_categorical:[]
