tree
version=v4
num_class=1
num_tree_per_iteration=1
label_index=0
max_feature_idx=29
objective=binary sigmoid:1
feature_names=Time V1 V2 V3 V4 V5 V6 V7 V8 V9 V10 V11 V12 V13 V14 V15 V16 V17 V18 V19 V20 V21 V22 V23 V24 V25 V26 V27 V28 Amount
feature_infos=[0:172792] [-46.855047200781797:2.4465049849959599] [-60.464617655649299:22.057728990490901] [-48.325589362395398:4.1017161776165096] [-5.5601175811559402:16.8753440335975] [-113.743306711146:29.162172020373301] [-20.869626188413299:73.301625545964598] [-43.5572415712451:120.589493945238] [-73.216718455267397:19.587772623440401] [-13.4340663182301:10.370657984046] [-24.588262437247501:15.2456856915255] [-4.0498949143506104:12.018913181619901] [-18.683714633344302:7.8483920756446004] [-5.7918812063208396:7.1268829585937601] [-19.214325490261398:10.526766051784699] [-4.49894467676621:8.8777415977427694] [-14.129854517493101:17.315111517627798] [-25.162799369324802:8.5381951386261594] [-9.4987459210467708:4.7123975663522497] [-6.9382973176848104:5.5721133268796903] [-54.497720494566003:38.1172091261285] [-34.8303821448146:27.202839157315399] [-9.4994229643025108:10.503090089945401] [-30.269720014316999:22.0835448685737] [-2.8366269187034101:4.5845491368981701] [-7.0813253463773904:6.0708503840779802] [-2.60455055280817:3.5173456116238002] [-9.5435183364842899:31.612198106136301] [-15.4300839055349:15.8704740546886] [0:25691.16]
tree_sizes=3359 3414 3399 3395 3430 3408 3433 3427 3443 3438 3440 3433 3428 3423 3439

Tree=0
num_leaves=31
num_cat=0
split_feature=17 14 12 7 4 26 26 14 7 17 25 4 17 25 26 14 12 8 24 5 16 29 1 4 15 7 17 11 23 21
split_gain=41325.4 5906.49 4148.34 2915.03 217.526 166.185 369.618 83.5585 394.408 54.4746 38.8804 19.8148 88.12 136.555 78.7827 29.7337 60.0249 12.1519 19.9215 55.2418 20.6824 20.9321 36.6015 9.35755 8.89227 6.62665 33.0305 11.1668 27.8926 5.01276
threshold=-2.2915491388384046 -4.8412096788159742 -1.8987576089955349 1.2081771615767403 1.5897199403555202 -0.26422080987423097 -0.31937213699431449 -3.3336187651522047 0.26656404423695756 0.62702415048926663 0.75080216700537716 2.4853369031465102 1.5289837418341603 0.16099393203960802 -0.19633730603144997 -2.1327427537957599 -0.31976280005473096 -0.13334191530117998 0.75863174311118253 0.75487901762195608 -0.83618875858701347 1.0050000000000001 -0.12590323532816497 1.8321122986399851 1.2014729441454852 2.4823367197296151 1.4036106212781403 -1.3743327683016899 0.22050476704191505 0.63469550923414009
decision_type=2 2 2 2 2 2 2 2 2 2 2 2 2 2 2 2 2 2 2 2 2 2 2 2 2 2 2 2 2 2
left_child=2 3 4 9 -1 6 -6 8 -3 -2 24 25 15 14 -14 16 -13 18 20 -20 -17 22 -22 -10 -7 29 27 28 -27 -9
right_child=1 7 -4 -5 5 10 -8 11 23 -11 -12 12 13 -15 -16 17 -18 -19 19 -21 21 -23 -24 -25 -26 26 -28 -29 -30 -31
leaf_value=-3.7792406546900215 -3.2604822074793658 -4.8018779774267815 -5.3354428661949767 -5.1048908561589501 -3.3181416114035995 -3.2605063088192168 -4.0904784199246338 -5.334865916947404 -5.3354391498303819 -3.571744719555026 -3.4491349755908658 -5.3354391468100664 -5.0241989556785773 -4.9581783084193676 -5.3354391455314198 -5.2096855329754659 -5.0241989410414343 -5.3346708126587083 -5.3354391436818567 -5.0524935196682197 -5.3354391468235187 -5.3354391468606783 -5.134639113593205 -5.2316923875001402 -3.3642512228171393 -5.1279456756406709 -5.1468087280390744 -5.3320431813385367 -5.3354391465803923 -5.327859472367753
leaf_weight=0.1542232478968798 0.13494277698919077 0.16867938032373675 0.12530384166166086 0.17349944496527314 0.17349944449961185 0.57833123067393899 0.096388581674545781 314.00507804006338 0.8867749460041523 0.096388591453433037 0.15904116304591298 0.17349944496527314 0.096388580277562141 0.15904115745797753 0.52049832744523783 0.15904115745797831 0.096388568636036065 13.017279072664671 0.19759659189730872 0.10602743877097964 0.23133259313181043 2.9446710338816047 0.14940237347037433 0.096388580743223429 0.096388578880578279 0.09638857655227262 0.10602743923664082 2.9446713882498434 0.19759659236297011 10.554549826774744
leaf_count=32 28 35 26 36 36 120 20 65154 184 20 33 36 20 33 108 33 20 2701 41 22 48 611 31 20 20 20 22 611 41 2190
internal_value=-5.32539 -5.33224 -3.6003 -4.12506 -3.42745 -3.3783 -3.59398 -5.33365 -5.24862 -3.39018 -3.30848 -5.33394 -5.32368 -5.21945 -5.28681 -5.32841 -5.22428 -5.33008 -5.31432 -5.23663 -5.32109 -5.32642 -5.25664 -5.32527 -3.27533 -5.33449 -5.32049 -5.32618 -5.26741 -5.33464
internal_weight=0 347.312 1.38318 0.404831 1.25787 1.10365 0.269888 346.907 1.15184 0.231331 0.833761 345.755 17.8512 0.775928 0.616887 17.0752 0.269888 16.8054 3.78807 0.303624 3.48445 3.32541 0.380735 0.983164 0.67472 327.904 3.34468 3.23866 0.293985 324.56
internal_count=72352 72065 287 84 261 229 56 71981 239 48 173 71742 3704 161 128 3543 56 3487 786 63 723 690 79 204 140 68038 694 672 61 67344
is_linear=0
shrinkage=1


Tree=1
num_leaves=31
num_cat=0
split_feature=14 10 17 7 17 1 4 4 4 17 10 18 16 14 23 8 24 10 16 29 25 6 26 20 7 17 11 26 21 29
split_gain=7358.71 862.971 240.29 151.22 108.623 110.015 61.7057 47.4983 19.6893 76.5174 111.391 116.589 32.4178 26.2243 49.404 11.9121 17.3622 38.4847 17.998 19.4304 11.0907 8.37423 23.6353 7.74021 6.57408 36.2361 10.3692 25.6253 5.01766 17.6985
threshold=-3.3336187651522047 -1.8403568755655046 -2.2915491388384046 -0.68512227427018446 0.62702415048926663 1.0000000180025095e-35 1.5472515637689201 3.9865782600730904 2.4853369031465102 1.5289837418341603 -0.10281867000823049 0.69834939525513307 1.5646735702767802 -2.1327427537957599 0.095885411023706513 -0.13334191530117998 0.75863174311118253 1.2587986393058301 -0.83618875858701347 0.74500000000000011 0.75080216700537716 -2.0536340366325545 -0.26422080987423097 0.82443956165340315 2.4823367197296151 1.4626711922998252 -1.3743327683016899 -0.21677097931552647 0.63469550923414009 0.76500000000000012
decision_type=2 2 2 2 2 2 2 2 2 2 2 2 2 2 2 2 2 2 2 2 2 2 2 2 2 2 2 2 2 2
left_child=1 4 -2 -3 6 -6 -1 -5 24 13 11 -11 -12 14 -10 16 18 -18 -15 -20 21 23 -23 -8 28 26 27 -26 -4 -30
right_child=2 3 8 7 5 -7 20 -9 9 10 12 -13 -14 15 -16 -17 17 -19 19 -21 -22 22 -24 -25 25 -27 -28 -29 29 -31
leaf_value=0.38928525550050369 0.19380905686637584 0.26678253205134667 -0.0094695647842137597 -0.010057170288001573 0.28667851838892527 0.56619968563913958 0.27647703738205276 0.13556659042908839 0.25408961968927435 0.066605026018397906 -0.010053658585018936 0.50098477690144627 0.18399290784281752 0.10209201340129796 -0.010057286819723002 -0.00927290002522233 -0.010051720898684655 0.20791461025543748 0.099048598301185828 -0.0068655543108666539 0.31213608285922639 0.33350264123581169 0.27386075212778654 0.24149399411807715 0.18200918784162368 0.19451583636835337 -0.0066632979364766119 -0.010051921738526908 0.091415297357181735 -0.0042411536854443412
leaf_weight=0.5757009489461743 0.58791303634643455 0.28870054613798868 311.07223762571812 1.2169353375211343 0.26946057146415192 0.29491287469863892 1.7430936377495503 0.27450619637966167 0.11357493232936278 0.13043873524293303 0.52288441965356369 0.11740626767277718 0.10306329280138016 0.17833793535828668 0.18803022522479296 12.89818561729043 0.19688135851174582 0.13763132505118847 0.18331715464592813 3.1416693842038512 1.0544087057933209 0.84342127339914208 3.1311560999602133 0.99263508617877949 0.10413284227252007 0.097764130681753048 2.9540882580913594 0.20868801511824209 0.19711361639201541 10.331659694202243
leaf_count=27 28 12 65154 234 23 17 52 32 22 23 101 20 17 33 34 2701 39 24 36 654 36 29 89 31 20 17 616 41 41 2149
internal_value=0 0.258296 -0.00818534 0.0572961 0.298478 0.432742 0.289393 0.0167455 -0.00853169 0.00167534 0.0929427 0.272374 0.0218964 -0.00300541 0.0894121 -0.00467089 0.0107955 0.079628 0.0042231 -0.00102617 0.281986 0.277249 0.286517 0.263784 -0.00909428 0.0048112 -0.000865819 0.053882 -0.00923976 -0.00245033
internal_weight=0 10.6849 343.465 1.78014 8.90479 0.564373 8.34042 1.49144 342.877 17.9114 0.873793 0.247845 0.625948 17.0376 0.301605 16.736 3.83784 0.334513 3.50332 3.32499 7.76471 6.71031 3.97458 2.73573 324.966 3.36467 3.26691 0.312821 321.601 10.5288
internal_count=72352 582 71770 278 304 40 264 266 71742 3704 161 43 118 3543 56 3487 786 63 723 690 237 201 118 83 68038 694 677 61 67344 2190
is_linear=0
shrinkage=0.01


Tree=2
num_leaves=31
num_cat=0
split_feature=14 10 17 21 12 10 29 28 4 17 1 23 14 21 8 8 16 24 29 7 20 21 27 24 2 7 17 11 28 21
split_gain=5681.6 470.421 199.498 115.09 37.1422 34.7323 38.2747 43.5956 19.5669 67.1641 75.8504 49.9819 23.4768 39.7749 11.6931 16.1036 16.3618 59.6526 9.4053 16.6097 8.16119 6.97164 9.93902 14.7911 6.84899 6.52241 33.6175 9.66688 24.4948 5.02195
threshold=-3.3336187651522047 -1.8403568755655046 -2.2915491388384046 -0.039870750626112492 -1.9827507846113497 -3.5054203195590348 1.2950000000000002 0.25721092018346353 2.4853369031465102 1.5289837418341603 0.80685692889763605 0.35025850706702405 -2.1327427537957599 -0.28138116766537696 -0.13334191530117998 -0.14854353700361797 -0.44306572052066945 0.61987962576651012 1.0050000000000001 0.027624641416230705 -0.7169519005443129 1.7135801392692853 0.75164126027214706 -0.091000871114087986 2.2834483599881903 2.4823367197296151 1.5289837418341603 -1.3743327683016899 0.18768008009918302 0.63469550923414009
decision_type=2 2 2 2 2 2 2 2 2 2 2 2 2 2 2 2 2 2 2 2 2 2 2 2 2 2 2 2 2 2
left_child=1 5 -2 4 -3 21 7 -7 25 12 11 -11 13 -10 15 16 17 20 19 -18 -14 22 24 -24 -1 29 27 28 -27 -4
right_child=2 3 8 -5 -6 6 -8 -9 9 10 -12 -13 14 -15 -16 -17 18 -19 -20 -21 -22 -23 23 -25 -26 26 -28 -29 -30 -31
leaf_value=0.2409056069194416 0.15990278728765167 0.13463365436655747 -0.0094636562580247968 0.19570740814484355 -0.010060619455892112 0.36281208346847038 0.22034547753447517 0.23388271428434265 -0.010058626960498055 -0.010060155920502252 0.23451058134448344 0.1977910219788975 0.090180130825334576 0.21284561826901832 -0.0092653504195700353 0.10433049192199963 0.12655822318270082 0.26513312801373201 -0.010049208883721244 -0.010056667935890762 -0.010051999474174581 0.22974523544699274 0.21191405617949305 0.16089419224619284 0.21204371228283875 -0.010054322078957852 0.18127078395115379 -0.006656776928240799 0.17279363622650448 -0.002432379056847372
leaf_weight=1.0741680096834878 0.70476341247558494 0.20691033639013756 308.16827734559774 0.43689299980178375 1.2440565596334634 0.56273848423734241 1.2132763783447442 0.49117671139538288 0.19757127296179533 0.58319462323561211 0.24530982598662376 0.14432381978258491 0.09976669168099761 0.13458204735071078 12.780264563858502 0.17485298030079199 0.14640059648081694 0.10901542427018285 2.6894439123570919 0.22696214495226741 0.43731436971575099 2.414561053737998 1.6187247186899187 0.87558498047292221 3.5051022972911596 0.22190182795748192 0.10452517401427019 2.9485936211422077 0.10937733901664615 10.504137719050048
leaf_count=27 28 12 65154 34 232 24 37 16 35 105 34 22 19 21 2701 35 28 20 557 41 86 58 37 25 80 42 15 618 19 2190
internal_value=0 0.199944 -0.00817024 0.0534173 0.010573 0.223476 0.25864 0.302725 -0.0085186 0.0016371 0.0824469 0.031173 -0.0029883 0.0802578 -0.00464759 0.0105481 0.00612678 0.0518571 -0.00352 0.0435119 0.00856684 0.215074 0.210065 0.194004 0.218814 -0.00908523 0.00472399 -0.00090232 0.050316 -0.00923189
internal_weight=0 13.6432 340.731 1.88786 1.45097 11.7553 2.26719 1.05392 340.026 17.969 0.972828 0.727518 16.9962 0.332153 16.664 3.88376 3.7089 0.646096 3.06281 0.373363 0.537081 9.48814 7.07358 2.49431 4.57927 322.057 3.3844 3.27987 0.331279 318.672
internal_count=72352 582 71770 278 244 304 77 40 71742 3704 161 127 3543 56 3487 786 751 125 626 69 105 227 169 62 107 68038 694 679 61 67344
is_linear=0
shrinkage=0.01


Tree=3
num_leaves=31
num_cat=0
split_feature=14 10 17 21 12 17 8 2 9 23 29 9 12 8 15 16 25 23 28 20 1 14 19 21 15 2 9 13 8 1
split_gain=4666.74 297.568 171.267 87.8444 32.0797 18.8426 32.5018 39.5844 27.0201 24.4107 20.2443 16.7555 14.3504 51.0191 10.8304 64.0413 9.89901 9.61814 8.84132 14.9847 8.80315 6.97511 18.7742 63.1436 8.89848 4.62695 11.0514 4.07031 6.46911 4.03239
threshold=-3.3336187651522047 -1.8403568755655046 -2.2915491388384046 -0.039870750626112492 -1.9827507846113497 1.4036106212781403 -0.43510789556546042 -0.35353922169561897 0.26768194732399159 1.1593535135056301 311.94500000000005 -0.39353160908579149 -0.31976280005473096 -2.4600802963012094 -1.2351748298918248 0.84947277106051911 0.76820512828199872 -0.68411484083836638 0.25721092018346353 0.51643480640061357 2.0407979801308902 -1.5726651627322548 -1.0872394217403498 -1.0000000180025095e-35 1.8689326735586353 2.2834483599881903 -1.5462151882957647 -2.0245321761229191 0.24649545950898152 -1.1402156482737298
decision_type=2 2 2 2 2 2 2 2 2 2 2 2 2 2 2 2 2 2 2 2 2 2 2 2 2 2 2 2 2 2
left_child=1 11 -2 4 -3 21 7 8 -7 14 12 16 13 -9 15 -8 18 -18 25 29 -15 22 23 -4 -24 26 -1 28 -16 -20
right_child=2 3 5 -5 -6 6 9 10 -10 -11 -12 -13 -14 20 27 -17 17 -19 19 -21 -22 -23 24 -25 -26 -27 -28 -29 -30 -31
leaf_value=0.21800683796128137 0.13646301244806497 0.11756914425822837 -0.010052695827688075 0.16109703286763402 -0.010060016262423978 0.067955786013358999 -0.01004828221604793 0.23486741564716085 0.28658880469814307 0.1232197736416102 0.14517790843615605 0.21569937518147086 -0.01004970609517635 -0.010050716539494731 -0.010047324713699323 0.18290420241396824 0.1743033737419398 0.21862197909518916 0.188473090702619 0.13822390998700509 0.096660037411503447 -0.0091959570924826962 -0.0056555113572157494 0.21011516596718122 0.088844851929635121 0.17465527844552636 0.17404412309374701 -0.01004882977265033 0.096447828247559306 0.16384745309492194
leaf_weight=0.96270152926445041 0.81691646575927634 0.23441832279786456 0.46033909358084202 0.52493113093078037 1.2317516622133551 0.12816680455580365 1.0113707622513146 0.1224902207031846 0.10112905502319336 0.15005690045654851 0.12882552528753888 1.2376192272640771 0.94644618220627175 0.44157434673979856 0.14534200774505279 0.20726340590044845 0.91970672458410252 1.0473228269256658 1.4066547080874443 1.613171763718128 0.093714268412441015 317.10748695908114 6.8304095095954827 0.18167074769735325 0.10111861722543825 4.5340881301090121 1.408249803353099 8.9418659303337353 0.093887737952172756 1.2610784876160324
leaf_count=22 28 12 91 34 232 22 213 25 19 27 21 30 196 90 31 28 19 25 28 35 20 67563 1451 32 21 86 32 1874 18 27
internal_value=0 0.164669 -0.00815502 0.0500898 0.0103459 -0.00850539 0.00353648 0.0409064 0.164382 -0.00341462 0.0245696 0.180522 0.0148843 0.0507606 -0.00524182 0.0227688 0.177212 0.1979 0.173575 0.162283 0.00863139 -0.00896944 0.000514758 0.0522486 -0.00427692 0.180575 0.191895 -0.00895975 0.0317476 0.176832
internal_weight=0 16.3817 338.01 1.9911 1.46617 337.193 12.5121 1.96235 0.229296 10.5498 1.73305 14.3906 1.60423 0.657779 10.3997 1.21863 13.153 1.96703 11.1859 4.2809 0.535289 324.681 7.57354 0.64201 6.93153 6.90504 2.37095 9.1811 0.23923 2.66773
internal_count=72352 582 71770 278 244 71742 2584 393 41 2191 352 304 331 135 2164 241 274 44 230 90 110 69158 1595 123 1472 140 54 1923 49 55
is_linear=0
shrinkage=0.01


Tree=4
num_leaves=31
num_cat=0
split_feature=14 10 17 7 15 25 4 17 10 2 0 14 12 10 27 16 26 10 20 7 17 11 28 12 3 14 23 15 26 20
split_gain=3975.46 205.228 150.459 71.5667 40.3966 35.9608 19.5282 57.207 57.3962 99.0672 26.8526 20.1693 45.2453 12.0283 22.5388 11.8291 8.96733 8.68393 27.6596 6.49393 36.4655 9.15358 24.6037 4.85857 30.1182 4.44318 12.4619 29.4452 8.61869 6.91081
threshold=-3.3336187651522047 -1.8403568755655046 -2.2915491388384046 -0.90909373200645394 0.18585703955307603 0.21699196817027652 2.4853369031465102 1.5289837418341603 -0.10281867000823049 0.9495229533717876 155266.50000000003 -2.1327427537957599 -0.20407744946177045 -3.5054203195590348 0.097166889555717964 -1.0267138379785499 1.1348207095598803 2.9277898408369754 -0.87373044002693734 2.4823367197296151 1.7237433885134703 -1.3743327683016899 0.20828233597093052 -2.7491087985345946 -0.18747183789220198 -0.80973692506414641 1.1593535135056301 0.95950663707483808 -0.4135159599620874 -2.7914899738600245
decision_type=2 2 2 2 2 2 2 2 2 2 2 2 2 2 2 2 2 2 2 2 2 2 2 2 2 2 2 2 2 2
left_child=1 13 -2 -3 5 -5 19 11 9 -9 -10 12 -8 -1 -15 -16 17 23 -19 25 21 22 -21 24 -13 26 29 28 -28 -4
right_child=2 3 6 4 -6 -7 7 8 10 -11 -12 16 -14 14 15 -17 -18 18 -20 20 -22 -23 -24 -25 -26 -27 27 -29 -30 -31
leaf_value=0.14800814205308171 0.11920815470772744 0.16971297836080215 0.065126957459197415 0.17217527409311587 -0.010089623106606951 -0.010067083324430511 -0.010067026619726614 0.31015908178185686 -0.010066805988953008 -0.010098272366073727 0.15223289472309212 0.17088996131154915 0.22014866584869566 0.21201788819454911 0.17257221854099772 0.12861646639658963 0.089726148987855942 0.17997275270955151 -0.010051270871018422 -0.010053887727847786 0.19552029034772705 -0.0066542036820130589 0.1707280190075556 -0.0074340632038563314 -0.010047428055671553 -0.0096792772672898673 0.09519416525057954 0.20024238458431456 -0.010047836762753001 -0.0070696923933780201
leaf_weight=13.483943939208988 0.92519664764404197 0.38823544234037433 0.13302275538444419 0.27395409066229959 1.2489601965062318 0.17903643427416682 0.24757790798321366 0.21856144955381751 0.59027983434498199 0.17307995818555355 0.12322200695052743 0.11053176643326879 0.13029946899042144 0.89845931623131159 1.4191086813807492 1.0767879700288172 0.10022082133218546 0.10524752363562584 0.28141930280253369 0.2356597790494569 0.097271189093589672 2.9463572613894931 0.11061967117711902 15.304223763290787 0.54860741924495293 272.00395973073319 0.09501877473667264 0.095106493216007948 0.42978169396519561 40.304779092781246
leaf_count=227 28 10 28 20 219 29 40 23 99 20 19 22 16 24 27 26 20 20 57 45 11 622 16 3251 117 58528 20 20 91 8657
internal_value=0 0.140668 -0.00813972 0.0471981 0.019251 0.100147 -0.00849207 0.00165947 0.0713547 0.168626 0.0179624 -0.00291759 0.0693158 0.152244 0.169069 0.153609 -0.00457685 -0.0051549 0.0416717 -0.00906736 0.00469907 -0.000938179 0.0476973 -0.00628914 0.0202942 -0.00921643 -0.00615007 0.0383464 0.00900696 -0.0068322
internal_weight=0 18.9685 335.31 2.09019 1.70195 0.452991 334.385 17.9333 1.10514 0.391641 0.713502 16.8281 0.377877 16.8783 3.39436 2.4959 16.4503 16.35 0.386667 316.452 3.38991 3.29264 0.346279 15.9634 0.659139 313.062 41.0577 0.619907 0.5248 40.4378
internal_count=72352 582 71770 278 268 49 71742 3704 161 43 118 3543 56 304 77 53 3487 3467 77 68038 694 683 61 3390 139 67344 8816 131 111 8685
is_linear=0
shrinkage=0.01


Tree=5
num_leaves=31
num_cat=0
split_feature=14 12 17 4 4 14 12 21 8 29 15 17 26 4 19 13 26 15 17 15 7 17 11 9 6 14 21 17 25 4
split_gain=3370.62 196.934 126.97 53.236 19.6042 29.0701 47.3303 93.0104 16.7383 19.0218 56.5128 24.9355 20.927 19.598 11.5668 8.56881 9.52113 9.4227 8.42241 8.1529 6.4219 21.9309 9.37124 26.6803 5.32823 4.35399 9.25302 28.362 4.11782 4.04935
threshold=-3.3336187651522047 -1.4404172840101797 -2.2915491388384046 1.94373941317257 2.4853369031465102 -1.4570008548394349 -0.49404113822776946 -0.16788028900306048 -0.11474371529410499 7.6150000000000011 -1.4262070631148849 1.6214043890600351 0.47795327988703401 4.9874019753404104 -1.8760653434318149 1.4325517826691001 -0.26422080987423097 0.32043250710695753 2.1842461367649402 0.98675054737344403 2.4823367197296151 1.7237433885134703 -1.3743327683016899 -0.049382649286745295 1.1587257622592151 -0.80973692506414641 2.3577993582813206 1.4036106212781403 0.75080216700537716 0.74627998856935962
decision_type=2 2 2 2 2 2 2 2 2 2 2 2 2 2 2 2 2 2 2 2 2 2 2 2 2 2 2 2 2 2
left_child=1 14 -2 -3 20 6 -6 24 9 10 -7 13 19 -11 -1 16 17 -16 -10 -12 25 22 23 -22 -8 26 29 -28 -18 -4
right_child=2 3 4 -5 5 8 7 -9 18 11 12 -13 -14 -15 15 -17 28 -19 -20 -21 21 -23 -24 -25 -26 -27 27 -29 -30 -31
leaf_value=0.17007656164304696 0.099776543562781581 -0.010087723693688195 -0.008189987081344257 0.10249087813954583 -0.010072227735465414 0.21308608937419496 -0.010073389792388565 0.28925168940708018 -0.0083990657928584653 -0.010049337033216362 -0.010053885356204497 0.13327897863907834 0.1340631769760624 0.094533630706811464 0.1362542718614404 0.10901790403396311 0.12716635658519285 0.17477235742670355 0.078267559388954175 0.083186715359712449 -0.010063064935836754 0.12253528457492462 -0.0066177239347695775 0.18233761255726588 0.072016751879555238 -0.0096381051965062567 -0.010048357243317801 0.18514513531076052 0.14283398905933023 -0.00033612877612354113
leaf_weight=0.77432287577540293 1.0876140594482411 1.3064116127789009 32.315371544566005 0.61909803561866272 0.61548252403736115 0.17925826739519835 0.22546477243304253 0.20043438347056752 12.134210949297989 2.8464128011837611 0.74669704586267893 0.13947380054742087 0.1387644037604332 0.19121688790619362 1.8362884852103989 1.6691388590261329 11.884276928380126 0.97090766998007882 0.11317861825227815 0.1072474499233067 0.23505068384110928 0.15077749080955971 2.9151222594082347 0.1039470490068205 0.12177213607355952 269.37272001197562 0.27221061987802286 0.10245872335508466 1.9531897380948056 8.2383720776997489
leaf_count=19 30 224 6988 36 100 34 33 27 2610 591 144 15 23 35 31 28 176 26 15 20 40 14 618 17 16 58521 57 19 32 1779
internal_value=0 0.122496 -0.00809391 0.026109 -0.00844786 0.0017733 0.050101 0.117725 -0.00161372 0.0152391 0.0496729 0.00253715 0.0201646 -0.0034659 0.132219 0.130618 0.132784 0.149576 -0.00759818 0.00165626 -0.0090265 0.00463221 -0.000830746 0.0489329 0.0187147 -0.00917638 -0.00613748 0.0433301 0.129378 -0.0065945
internal_weight=0 21.0136 332.553 1.92551 331.466 17.7596 1.16315 0.547671 16.5965 4.34907 1.17197 3.1771 0.992709 3.03763 19.0881 18.3138 16.6447 2.8072 12.2474 0.853944 313.706 3.4049 3.25412 0.338998 0.347237 310.301 40.9284 0.374669 13.8375 40.5537
internal_count=72318 572 71746 260 71716 3663 176 76 3487 862 221 641 187 626 312 293 265 57 2625 164 68053 689 675 57 49 67364 8843 76 208 8767
is_linear=0
shrinkage=0.01


Tree=6
num_leaves=31
num_cat=0
split_feature=14 12 17 4 4 14 12 18 17 26 21 16 11 15 19 19 13 26 27 15 19 17 20 4 14 23 2 4 22 4
split_gain=2997.09 152.028 115.554 46.8998 19.4909 26.8764 39.1671 75.1755 14.6473 9.15948 9.28982 16.5438 35.2657 7.74075 7.57932 7.41354 6.05729 6.24172 7.14543 6.00411 24.5825 42.0245 20.0241 6.83488 5.22119 9.83539 45.4066 5.36763 21.238 17.627
threshold=-3.3336187651522047 -1.4404172840101797 -2.2915491388384046 1.94373941317257 2.4853369031465102 -1.4570008548394349 -0.49404113822776946 0.55949952822577853 2.1842461367649402 1.2022011268814101 -0.41073176672313944 0.27521770423244357 0.60581104859188362 0.6997235855047047 -1.8760653434318149 2.1772234695239305 1.4325517826691001 -0.25959353189068096 0.025553106375117356 -1.1815683522433498 -1.4744621664871846 -0.7932903830520418 -0.34367602080491894 2.5758924496849507 -0.80973692506414641 1.1593535135056301 -1.6760512947283346 0.74627998856935962 -0.9884207726656099 0.79662940785084213
decision_type=2 2 2 2 2 2 2 2 2 2 2 2 2 2 2 2 2 2 2 2 2 2 2 2 2 2 2 2 2 2
left_child=1 14 -2 -3 24 6 -6 -8 9 10 11 12 13 -7 -1 19 17 18 -16 20 21 -12 -23 -22 25 27 -27 -4 -29 -30
right_child=2 3 4 -5 5 8 7 -9 -10 -11 15 -13 -14 -15 16 -17 -18 -19 -20 -21 23 22 -24 -25 -26 26 -28 28 29 -31
leaf_value=0.1454785692472042 0.090341790920235948 -0.010087357919599995 -0.0082039428236009709 0.092583877400661041 -0.010071506211959248 -0.010054307184766107 -0.010074969829290278 0.21024990016989251 0.078314645414731016 0.095190601740970909 0.21800423596635529 -0.01005421622054266 0.19903992692020167 0.09303617850234519 0.11424945588683473 0.072556400686579633 0.098395394862032734 0.11471732851652364 0.14323585918526244 -0.010047469595525485 0.06114435889666537 0.12168446059880898 -0.010050953030930079 -0.010048653856246433 -0.0095262301842142898 -0.010053102547528571 0.18171359995759651 0.11486731674357917 0.046053746094005026 -0.0060026994315018102
leaf_weight=0.89550114702433958 1.1886367797851551 1.2935265088453878 32.564252779819071 0.67816899437457312 0.60940181231126189 0.29232345847413899 0.30221200641244894 0.31762585742399096 0.22619655355811019 0.095009328797458603 0.13154486194252968 0.65365210920572281 0.14347046287730336 0.097006306983530521 1.5978708579205076 0.12099910574033934 1.8299613506533194 15.200702078640456 1.8180474629625676 10.670867838431137 0.14046565257013677 0.15181586751714349 0.48082558019086707 3.3740691114217043 269.32155996514484 0.58604002604261041 0.15643175831064482 0.16009928658604522 0.71300585893913915 7.4167523174546659
leaf_count=19 30 224 7088 36 100 56 44 32 27 17 26 129 26 20 28 20 28 205 32 2292 30 30 98 716 59042 117 29 31 154 1592
internal_value=0 0.109241 -0.00807833 0.0252266 -0.00843421 0.00174047 0.046857 0.102827 -0.00160482 -0.00271034 -0.00328249 0.0236591 0.0650194 0.015632 0.117003 -0.0054035 0.115756 0.117462 0.129677 -0.00603449 0.00397363 0.0553768 0.0215618 -0.00720328 -0.00901695 -0.00571958 0.0303503 -0.0063751 0.000808968 -0.00143718
internal_weight=0 23.3138 329.914 1.9717 328.726 17.8075 1.22924 0.619838 16.5782 16.352 16.257 1.18645 0.5328 0.38933 21.3421 15.0706 20.4466 18.6166 3.41592 14.9496 4.27872 0.764186 0.632641 3.51453 310.918 41.5966 0.742472 40.8541 8.28986 8.12976
internal_count=72318 572 71746 260 71716 3663 176 76 3487 3460 3443 231 102 76 312 3212 293 265 60 3192 900 154 128 746 68053 9011 146 8865 1777 1746
is_linear=0
shrinkage=0.01


Tree=7
num_leaves=31
num_cat=0
split_feature=14 10 17 17 1 4 14 21 20 8 29 1 1 17 4 10 25 17 17 3 14 23 2 4 22 4 26 29 9 27
split_gain=2700.8 110.66 106.133 44.1613 25.8268 19.3791 25.0004 32.9548 52.2568 16.1196 17.0868 45.3638 77.9007 20.2394 17.1323 8.29933 9.8636 7.3359 7.15745 6.717 5.24131 9.43155 36.3546 5.33142 16.9938 16.616 62.6559 8.79555 6.2915 4.68406
threshold=-3.3336187651522047 -1.8403568755655046 -2.2915491388384046 -1.4915997486445498 1.7439585633040502 2.4853369031465102 -1.4570008548394349 -0.16788028900306048 -0.082550827610593236 -0.11474371529410499 7.6150000000000011 -0.12590323532816497 1.0436770897609253 1.6214043890600351 4.9874019753404104 -3.5054203195590348 0.34576211549802405 -0.32363752717763494 2.1842461367649402 0.31441792969093108 -0.80973692506414641 1.1593535135056301 -1.6760512947283346 0.74627998856935962 -0.96996248346228542 0.79662940785084213 -0.31937213699431449 0.89500000000000013 -1.1638873912227998 0.37798314045399956
decision_type=2 2 2 2 2 2 2 2 2 2 2 2 2 2 2 2 2 2 2 2 2 2 2 2 2 2 2 2 2 2
left_child=1 15 -2 -3 -5 20 7 19 -9 10 11 -8 -13 14 -12 -1 29 -14 -11 -7 21 23 -23 -4 -25 26 -26 -28 -27 -17
right_child=2 3 5 4 -6 6 9 8 -10 18 13 12 17 -15 -16 16 -18 -19 -20 -21 -22 22 -24 24 25 28 27 -29 -30 -31
leaf_value=0.10259531657683151 0.082569095039858681 0.091280688566586471 -0.0081885311582615174 -0.010104409210516229 0.1318661869569227 -0.01007825467876561 -0.010060312819221564 0.22711181851339901 0.022531499795158897 -0.0083780463798996656 -0.010048843640983187 0.25619526571408963 -0.010052318214571712 0.10963596363705173 0.08222933814942783 0.094773485456432577 0.13824558664443407 0.091613741239467722 0.065670566339699518 0.070012967504034684 -0.009520865200952796 -0.010052572144099005 0.15023579961608113 0.093509361433010058 0.26503957581172777 0.059564297455532537 0.093599757332595804 -0.010048756878710896 -0.0072752337258841105 0.12029578796442815
leaf_weight=18.655548095703132 1.2870006561279286 0.88147653639316592 32.300642358139157 1.4181962450966228 0.14086403045803297 0.65018352819606662 0.66773139638826251 0.21072973823174834 0.30639994982630259 11.985207526478911 2.8143701008521029 0.22533641336486165 0.25496911397203803 0.16697541857138265 0.21668551489710797 1.5121075930073851 1.5417341692373154 0.098352090455591679 0.13197167217731554 0.12481621839106083 266.79132027970627 0.58023928292095661 0.18713545612990756 0.19310589227825303 0.10905522480607033 0.14363088365644117 0.09647986385971119 0.54074701713398099 7.2153946519829342 1.3711409494280813
leaf_count=223 30 38 7088 228 14 98 118 20 37 2610 591 35 50 15 35 25 26 18 15 21 59042 117 29 34 22 28 20 112 1561 18
internal_value=0 0.0987446 -0.00806269 0.0347083 0.0027229 -0.00842048 0.00170867 0.0440737 0.105898 -0.00159663 0.0146933 0.0461011 0.110908 0.00245253 -0.00345202 0.105516 0.117828 0.0182479 -0.00757156 0.0028207 -0.00900733 -0.00569529 0.0290361 -0.00635176 0.000797671 -0.00141115 0.04355 0.00564423 -0.00597068 0.106911
internal_weight=0 25.5211 327.298 2.44054 1.55906 326.011 17.8537 1.29213 0.51713 16.5616 4.44442 1.24639 0.578658 3.19803 3.03106 23.0805 4.42498 0.353321 12.1172 0.775 308.158 41.3664 0.767375 40.5991 8.29841 8.10531 0.746282 0.637227 7.35903 2.88325
internal_count=72318 572 71746 280 242 71716 3663 176 57 3487 862 221 103 641 626 292 69 68 2625 119 68053 9011 146 8865 1777 1743 154 132 1589 43
is_linear=0
shrinkage=0.01


Tree=8
num_leaves=31
num_cat=0
split_feature=14 12 17 4 4 14 12 18 7 1 17 21 11 26 15 7 17 11 15 3 20 24 7 14 21 4 4 4 26 14
split_gain=2459.51 101.989 98.2124 37.2418 19.2688 23.3557 31.0991 49.6324 12.2527 57.1354 17.072 10.9958 24.3833 10.2197 8.35082 6.45231 17.7155 8.94297 23.3904 4.90585 14.1362 9.12971 5.61528 4.41055 8.20372 27.8956 3.97279 14.5607 44.8576 8.47372
threshold=-3.3336187651522047 -1.4404172840101797 -2.2915491388384046 1.94373941317257 2.4853369031465102 -1.4570008548394349 -0.49404113822776946 0.55949952822577853 1.0835662036115601 0.036936223831077059 0.79829198676599011 -0.42129941313572344 0.97089014466536916 1.1348207095598803 1.4616398340261603 2.4823367197296151 1.7237433885134703 -1.3743327683016899 0.044216017376182255 -4.6526912882581284 0.2642585666012181 0.060020741911741053 -1.4907162982291198 -0.80973692506414641 2.3577993582813206 0.39220104035425657 0.74627998856935962 0.79662940785084213 -0.32764790441758646 -1.0531992664183949
decision_type=2 2 2 2 2 2 2 2 2 2 2 2 2 2 2 2 2 2 2 2 2 2 2 2 2 2 2 2 2 2
left_child=1 19 -2 -3 15 6 -6 -8 11 10 -10 12 14 -13 -7 23 17 18 -17 22 21 -21 -1 24 26 -26 -4 28 -28 -30
right_child=2 3 4 -5 5 8 7 -9 9 -11 -12 13 -14 -15 -16 16 -18 -19 -20 20 -22 -23 -24 -25 25 -27 27 -29 29 -31
leaf_value=0.094835282952376962 0.076047027408747858 -0.010087622062412364 -0.0081444803432639181 0.07673300101911773 -0.010073967638924508 -0.010057096826537142 -0.010077341626039292 0.15703570157229607 -0.010050304008864051 0.17599531630192053 0.087800049798003765 -0.0078257321830457575 0.11473137694271904 0.097281491509699225 0.084717738538779883 -0.010061284406468703 0.10152390413740817 -0.0065370787381496976 0.16395678982067058 0.13073092250547647 0.089798406503865849 0.098554950678493958 0.077193496233055492 -0.0096250131973940299 -0.010053173737252714 0.1776812346110038 0.20161962207164558 -0.0046829489984291728 -0.010048907088367759 0.090043121685757413
leaf_weight=15.754276998341089 1.3828735351562489 1.2928252536803477 31.559866132680327 0.79966686014085997 0.62559684598818421 0.78278220724314873 0.30885711312294251 0.41858874401077628 1.4022477609105397 0.21494278451427806 0.20427827164530743 13.501955769024784 0.24035789305344224 0.093144664540887656 0.10550013603642583 0.23559558810666281 0.17911672219634045 2.8489649733528486 0.1149174221791327 2.0465636202134188 4.1628086245618761 1.5495264427736399 2.0375492870807674 261.82394532067701 0.3080199034884562 0.10652168374508619 0.14171978132799268 7.4577645137906075 0.55140435183420777 0.099906358402220508
leaf_count=171 30 224 6988 36 100 150 44 32 290 32 29 2919 35 15 17 41 14 618 16 33 62 18 28 58521 60 16 22 1623 114 20
internal_value=0 0.0902117 -0.00804702 0.0230918 -0.00840669 0.00167785 0.0416237 0.0860833 -0.00158886 0.022878 0.00239189 -0.00461565 0.0253773 -0.00710561 0.00119919 -0.00899765 0.00474511 -0.000672863 0.0469914 0.0957086 0.102344 0.116867 0.0928149 -0.00915137 -0.00606844 0.0381875 -0.00652927 -0.000350993 0.0403873 0.00530449
internal_weight=0 27.6432 324.709 2.09249 323.326 17.8983 1.35304 0.727446 16.5452 1.82147 1.60653 14.7237 1.12864 13.5951 0.888282 305.428 3.37859 3.19948 0.350513 25.5507 7.7589 3.59609 17.7918 302.049 40.2252 0.414542 39.8107 8.2508 0.79303 0.651311
internal_count=72318 572 71746 260 71716 3663 176 76 3487 351 319 3136 202 2934 167 68053 689 675 57 312 113 51 199 67364 8843 76 8767 1779 156 134
is_linear=0
shrinkage=0.01


Tree=9
num_leaves=31
num_cat=0
split_feature=14 17 12 4 4 14 12 18 8 29 1 4 9 17 4 7 17 7 17 11 14 14 21 4 4 4 26 11 22 9
split_gain=2258.75 91.4573 84.7533 33.7839 19.1651 21.9 27.0693 38.7752 15.4279 15.2347 36.5962 46.9885 91.4987 16.7354 15.3072 6.6287 6.43184 6.40323 15.6524 8.39255 20.1645 4.43002 7.80935 25.3428 3.94945 13.7157 34.2514 8.22526 7.50678 7.73423
threshold=-3.3336187651522047 -2.2915491388384046 -1.4404172840101797 1.94373941317257 2.4853369031465102 -1.4570008548394349 -0.49404113822776946 0.55949952822577853 -0.11474371529410499 7.6150000000000011 -0.12590323532816497 3.2430479768164155 -1.0988970888799647 1.6214043890600351 4.9874019753404104 0.29368386050089651 2.1842461367649402 2.4823367197296151 1.7237433885134703 -1.3743327683016899 0.70459919910447111 -0.80973692506414641 2.3577993582813206 0.49057515518423106 0.74627998856935962 0.79662940785084213 -0.32764790441758646 1.2039135461577704 -0.9884207726656099 -1.1886876299440596
decision_type=2 2 2 2 2 2 2 2 2 2 2 2 2 2 2 2 2 2 2 2 2 2 2 2 2 2 2 2 2 2
left_child=2 -2 -1 -4 17 6 -6 -8 9 10 -7 12 -12 14 -11 -13 -10 21 19 20 -19 22 24 -24 -3 26 -26 -28 -27 -30
right_child=1 4 3 -5 5 8 7 -9 16 13 11 15 -14 -15 -16 -17 -18 18 -20 -21 -22 -23 23 -25 25 28 27 -29 29 -31
leaf_value=0.087826820236660399 0.070494215527320409 -0.0081286873501731118 -0.010086596816130659 0.071132199653186054 -0.010073227749135025 -0.010060314727324549 -0.010076565532157465 0.13361542897125642 -0.0083546116100058632 -0.010048544015061485 0.33857568780652253 0.083917058542714695 -0.010056349574697046 0.091918368342786799 0.073114449288447569 -0.010061660000866527 0.058471157073308015 -0.010068936777695596 0.091017359366226624 -0.0065139679297374336 0.14506570453179601 -0.0096205585689882155 -0.010052806583523333 0.16299235159213826 0.16345745429201824 0.07426433668575301 -0.010048585733158038 0.087471832113343667 0.074054532914960988 -0.007262735731403137
leaf_weight=27.554258666932586 1.4763927459716786 31.306164816953242 1.2800724562257522 0.85371580906212319 0.61941729066893458 0.66291327914223075 0.30580733949318772 0.48664954118430614 11.823366265743966 2.789762342814357 0.17206869320943952 0.1063868566416204 0.13383132033050482 0.19589684577658761 0.24040051549673069 0.25482796272262931 0.14580422639846879 0.23936014389619309 0.1976930946111678 2.8305747117847195 0.12890943558886647 259.33832486346364 0.31629212386906047 0.11555102281272411 0.17287295404821634 0.11859377613291133 0.55262363981455376 0.10253599286079407 0.11889914795756329 7.185750896576792
leaf_count=312 30 6988 224 36 100 118 44 32 2610 591 18 15 25 15 35 45 15 39 14 618 18 58521 62 14 22 21 115 19 24 1578
internal_value=0 -0.00803128 0.083125 0.0224086 -0.00839283 0.00165053 0.0394531 0.078165 -0.00157922 0.0140816 0.0425607 0.0948504 0.186049 0.00234038 -0.00345074 0.0176174 -0.00754056 -0.00898792 0.00466518 -0.000671504 0.0442345 -0.00914284 -0.00604478 0.03625 -0.0065065 -0.000351776 0.0382513 0.00521388 -0.00465779 -0.00593912
internal_weight=0 322.138 29.688 2.13379 320.661 17.9371 1.41187 0.792457 16.5253 4.55609 1.33003 0.667115 0.3059 3.22606 3.03016 0.361215 11.9692 302.724 3.39654 3.19884 0.36827 299.328 39.9893 0.431843 39.5574 8.25128 0.828033 0.65516 7.42324 7.30465
internal_count=72318 71746 572 260 71716 3663 176 76 3487 862 221 103 43 641 626 60 2625 68053 689 675 57 67364 8843 76 8767 1779 156 134 1623 1602
is_linear=0
shrinkage=0.01


Tree=10
num_leaves=31
num_cat=0
split_feature=14 17 7 12 4 17 25 3 8 28 1 15 12 13 14 3 8 20 13 6 25 4 14 29 7 29 12 22 19 21
split_gain=2002.6 80.0257 48.9515 41.4435 26.4222 54.038 68.0577 30.7334 12.2215 12.2111 34.6323 23.5995 11.9449 20.0718 10.8823 10.2562 8.34635 7.47227 68.1145 83.1479 14.2057 27.2565 6.29049 41.3427 6.16462 6.00817 14.0571 5.19097 3.75672 6.12191
threshold=-3.3336187651522047 -2.2915491388384046 0.26656404423695756 -1.4404172840101797 2.4853369031465102 1.4626711922998252 0.34576211549802405 -2.0684603074247296 -0.14463694438828498 0.14420847101834852 -0.12590323532816497 1.2579211978082852 -2.7491087985345946 1.5935576695713602 -2.1327427537957599 -1.8295419745387198 -0.15161932302305847 -0.98718597090398441 -1.5601528447593598 -0.13141391108455747 -1.5282407692668747 0.67123787569682258 -1.5726651627322548 453.59000000000009 0.4921535884406571 183.58500000000004 0.17524279788640554 1.6026568078220602 -1.7173622816003147 0.23133445593681554
decision_type=2 2 2 2 2 2 2 2 2 2 2 2 2 2 2 2 2 2 2 2 2 2 2 2 2 2 2 2 2 2
left_child=2 -2 15 -4 17 8 7 -7 9 12 11 -11 13 -6 -10 -1 28 18 19 -3 21 -20 23 25 -5 -19 -27 -22 29 -14
right_child=1 4 3 24 5 6 -8 -9 14 10 -12 -13 16 -15 -16 -17 -18 22 20 -21 27 -23 -24 -25 -26 26 -28 -29 -30 -31
leaf_value=0.078762805178819797 0.067689240369281395 0.38637258220741977 0.083136966174676225 0.059464529830622677 -0.010056114860004626 0.099958886862542201 0.17767733382358494 -0.010090158297826236 0.049337737169675447 -0.01005323662191536 0.14064339227660166 0.12925636731617654 -0.01005901216812395 0.16820754272443181 -0.0083752343878304419 0.10068953354952649 0.083486967742882862 -0.0058836038750948441 -0.010045263226111486 -0.010044900726063797 -0.010046223402479033 0.20490493263266552 -0.0092707989013333728 0.1421247135081003 -0.010068419497730612 -0.010056622038010719 0.099751496675384674 0.043888170923569163 -0.010054905244208016 0.092255827806915977
leaf_weight=25.959230150561787 1.4005489349365223 0.10090005677193403 0.95716596674174104 0.14244270510971446 0.14456315012648735 0.36305386899039138 0.37248949985951174 0.84304397692903776 0.33588524162769751 0.79538166569545865 0.2652717758901415 0.14354850491508842 0.14561177184805352 0.11217335192486644 11.973048457875842 2.324220433831214 0.10684359213337735 9.6094947205856389 0.16122038522735227 0.11124862357974041 4.7769959433935574 0.093034300487488508 284.37134385714307 0.19708249112591225 1.2157914708368478 0.32387361442670304 0.1821463443338871 0.18537522247061122 2.6021354193799198 0.097730664536356926
leaf_count=261 26 20 32 12 27 29 25 120 28 157 31 24 27 18 2666 37 18 2125 36 25 1054 17 64630 30 219 66 39 38 514 18
internal_value=0 -0.0077353 0.0769458 0.0327395 -0.00806705 0.00359825 0.059526 0.0230363 -0.00168137 0.0125959 0.0397501 0.0112451 0.00240631 0.0678309 -0.00680037 0.0805647 -0.00328307 -0.0087784 0.00284709 0.178495 -0.00429613 0.0686071 -0.00899257 -0.00132031 -0.00277626 -0.00411508 0.0294698 -0.00803144 -0.00654116 0.0310325
internal_weight=0 319.814 30.5989 2.3154 318.413 18.3008 1.57859 1.2061 16.7222 4.41326 1.2042 0.93893 3.20906 0.256737 12.3089 28.2835 2.95232 300.113 5.42877 0.212149 5.21663 0.254255 294.684 10.3126 1.35823 10.1155 0.50602 4.96237 2.84548 0.243342
internal_count=72369 71808 561 263 71782 3702 174 149 3528 834 212 181 622 45 2694 298 577 68080 1190 45 1145 53 66890 2260 231 2230 105 1092 559 45
is_linear=0
shrinkage=0.01


Tree=11
num_leaves=31
num_cat=0
split_feature=14 17 10 11 4 4 17 10 1 8 28 15 1 14 15 29 20 13 4 25 17 24 14 29 0 19 29 13 6 25
split_gain=1862.73 75.1011 43.3117 64.3282 28.601 26.211 49.7435 60.0431 75.7449 11.9055 11.2962 28.1982 23.5109 10.3222 10.1431 29.1728 7.41526 54.7927 59.853 13.0931 24.8118 7.21748 6.28406 35.405 6.32841 36.178 7.10617 32.6953 6.47171 5.91791
threshold=-3.3336187651522047 -2.2915491388384046 -1.8403568755655046 -0.39055401515722948 2.2481235423735004 2.4853369031465102 1.4626711922998252 -0.12896790046486298 -0.42015331504235043 -0.14463694438828498 0.14420847101834852 1.2579211978082852 -0.12590323532816497 -2.1327427537957599 -1.4262070631148849 7.7650000000000006 -0.98718597090398441 -1.5601528447593598 -0.20837954612638895 -1.5282407692668747 0.18082994311908054 1.0841028340241703 -1.5726651627322548 453.59000000000009 166768.00000000003 0.30008685569640353 106.605 1.0028675169100052 -1.2513060090616548 0.51792169365771212
decision_type=2 2 2 2 2 2 2 2 2 2 2 2 2 2 2 2 2 2 2 2 2 2 2 2 2 2 2 2 2 2
left_child=2 -2 29 -4 -5 16 9 8 -8 10 14 12 -12 -11 15 -7 17 18 -3 20 -19 -16 23 24 26 -26 -18 28 -28 -1
right_child=1 5 3 4 -6 6 7 -9 -10 13 11 -13 -14 -15 21 -17 22 19 -20 -21 -22 -23 -24 -25 25 -27 27 -29 -30 -31
leaf_value=0.072877854990446869 0.063291758124406544 -0.010055395260984668 0.27421709155803431 -0.010084086772433481 0.058252952659603355 0.13635159887076875 0.017208133609447864 0.00084019155968281681 0.21686311200900665 0.046575831214867275 -0.010052705013697198 0.15149599652288745 0.09643739091646325 -0.0083609317148934086 -0.010052310873655606 -0.010050593532243364 -0.0088762631754649851 -0.010047402820697875 0.29472696901541506 -0.0080151185089460033 0.18715871651366137 0.066010816352029517 -0.0092632436312431385 0.12232417302977357 -0.010045939544039458 0.21200799943360385 0.065317132119853391 0.19140533816059141 -0.010050015244903756 0.083653241644202889
leaf_weight=23.349272105842832 1.482440948486327 0.12658462673425674 0.10548616852611337 1.3033028417266899 1.1553848669864235 0.20480447029694948 0.36523052025586367 0.9137048996053625 0.39608955150470138 0.35215940512717203 0.78750897105783213 0.18566283956170071 0.28141034906730045 11.874087691307063 2.4770155842416037 0.40577720897272229 8.5503041748888737 0.17206084122881282 0.13122976105660189 4.9232755461707702 0.10139696532860398 0.13136490434408177 281.77022330649197 0.22652711812406856 0.39579291176050979 0.090068296529352665 0.13265788368880749 0.099278616718947887 0.80723634501919039 6.5201210640370837
leaf_count=221 26 24 9 229 37 23 30 126 18 28 157 26 29 2666 500 84 1903 37 21 1092 16 15 64630 30 88 20 25 21 173 65
internal_value=0 -0.00771797 0.0718442 0.0324034 0.0220288 -0.00805119 0.00353971 0.0554916 0.121082 -0.00167118 0.0122873 0.0377409 0.0179825 -0.00677856 0.00236688 0.0390564 -0.00876703 0.0027852 0.145081 -0.00427424 0.0630758 -0.00622157 -0.00898277 -0.00131155 -0.00409129 0.0311181 -0.00587521 0.0188174 0.000587401 0.07523
internal_weight=0 317.384 32.4336 2.56417 2.45869 315.901 18.3748 1.67502 0.76132 16.6998 4.47354 1.25458 1.06892 12.2262 3.21896 0.610582 297.527 5.45455 0.257814 5.19673 0.273458 2.60838 292.072 10.3019 10.0753 0.485861 9.58948 1.03917 0.939894 29.8694
internal_count=72369 71808 561 275 266 71782 3702 174 48 3528 834 212 186 2694 622 107 68080 1190 45 1145 53 515 66890 2260 2230 108 2122 219 198 286
is_linear=0
shrinkage=0.01


Tree=12
num_leaves=31
num_cat=0
split_feature=14 17 10 11 17 29 23 19 12 8 23 24 17 23 25 25 0 14 29 1 25 1 11 24 11 20 13 24 22 1
split_gain=1741.15 70.7757 37.6482 45.4672 22.0559 22.9348 21.9089 39.7672 19.7873 15.4677 32.5714 29.5964 36.7555 20.3293 9.81967 31.7327 21.7739 8.68488 11.5522 8.61685 26.7636 19.6781 9.54838 8.00577 7.10739 5.68195 28.0788 34.2155 14.3009 21.9875
threshold=-3.3336187651522047 -2.2915491388384046 -1.8403568755655046 -0.39055401515722948 1.4036106212781403 0.74500000000000011 1.1593535135056301 1.3629040507522603 -1.4404172840101797 -0.43510789556546042 -0.14089651721412047 -0.27716193320119792 1.8334250657744902 -0.24516912370309749 0.50325543730301414 0.55099463406587512 54012.000000000007 -1.5726651627322548 505.14500000000004 1.8175471040787501 0.30940970616833857 1.8640000959020553 1.3271565075461551 0.63452343959184909 0.36943487881410003 -0.98718597090398441 -1.5601528447593598 0.13781555866775153 1.6026568078220602 -4.915157386093794
decision_type=2 2 2 2 2 2 2 2 2 2 2 2 2 2 2 2 2 2 2 2 2 2 2 2 2 2 2 2 2 2
left_child=2 -2 -1 -4 17 -6 9 24 -5 10 11 12 -7 -13 -11 16 -16 18 19 -3 21 -21 -23 -10 -8 26 27 -19 -28 -30
right_child=1 4 3 8 5 6 7 -9 23 14 -12 13 -14 -15 15 -17 -18 25 -20 20 -22 22 -24 -25 -26 -27 28 -29 29 -31
leaf_value=0.070452052538663754 0.059437648632943166 -0.0063716213369136524 0.20836158490183812 0.053709703208349037 0.13169373212738461 0.26816680814221855 -0.01007375218411936 0.21701703801414415 -0.010092576672282857 -0.0078177074271782807 -0.010059819224741197 -0.010077127329782666 0.049883350435904576 0.12956802770613673 0.15642532005588444 -0.0100501478019136 -0.010045607720335158 -0.010063008086456795 0.068234073357853586 0.11337005155444566 0.16925214598368249 -0.01004879144608403 0.09247688363181894 0.077013361409459663 0.086959147607318252 -0.0090373935015594913 -0.007901572005657085 0.2146651936361704 -0.010052827796277329 0.17952256087699245
leaf_weight=31.567080110311508 1.5623703002929676 5.436010909266769 0.1372380638495091 1.0793122602626686 0.14099011104553838 0.14375237096101046 0.28236447507515627 0.1319292108528316 1.3083821195177718 8.9440744891762716 1.0513055552728445 0.3833315996453166 0.16647247644141316 0.14318968122825015 0.23959083994850405 0.87738146260380745 0.11690949182957411 0.13757290830835689 0.25523066753521551 0.16187510406598438 0.11143564386293281 1.3218458015471695 0.097540294285863527 0.11476883338764321 0.10303120873868465 288.12087921379134 4.6612572735175481 0.13348785927519202 0.14567723218351603 0.10547852236777533
leaf_count=286 26 1167 9 29 19 22 49 7 223 1925 204 68 22 22 15 193 26 24 39 23 16 288 22 14 16 66519 1030 20 29 17
internal_value=0 -0.00770065 0.0674183 0.0311393 -0.00803534 0.00486037 0.00343926 0.0671646 0.0214202 0.000707067 0.0269949 0.0735513 0.151032 0.0279 -0.00416943 0.0222759 0.101833 -0.00858105 0.00213016 -0.000236568 0.0194658 0.00891001 -0.00300322 -0.00306799 0.0158669 -0.00885071 0.00152617 0.100608 -0.00394103 0.0695636
internal_weight=0 314.975 34.2068 2.6397 313.413 12.7243 12.5833 0.517325 2.50246 12.066 1.88805 0.836746 0.310225 0.526521 10.178 1.23388 0.3565 300.688 7.38394 7.12871 1.6927 1.58126 1.41939 1.42315 0.385396 293.304 5.18347 0.271061 4.91241 0.251156
internal_count=72369 71808 561 275 71782 2588 2569 72 266 2497 338 134 44 90 2159 234 41 69194 1555 1516 349 333 310 237 65 67639 1120 44 1076 46
is_linear=0
shrinkage=0.01


Tree=13
num_leaves=31
num_cat=0
split_feature=10 12 4 18 0 1 12 3 22 0 19 1 16 20 13 10 25 12 24 27 1 16 8 29 11 25 15 8 5 19
split_gain=1511.36 106.326 62.0769 80.3035 65.0366 69.5634 56.2633 37.5598 24.0765 23.0599 21.5175 19.2696 12.4765 10.2175 41.3105 43.6794 11.7343 48.6758 9.6032 7.07554 35.4295 20.4953 6.60314 4.97417 22.4941 48.0879 9.77647 3.78475 4.04968 3.40204
threshold=-2.1203200454975044 -1.8987576089955349 1.94373941317257 1.1306655093103652 1760.5000000000002 0.94215646646497364 -2.5063120541757393 0.42883219925655652 -0.18835161437287948 89641.000000000015 2.1772234695239305 -0.37130254072499541 -1.8013546428368847 -0.98718597090398441 -1.5601528447593598 0.26642500723530305 -0.95437428871776586 -0.36272112711157645 0.70765994905966012 -0.21262729796406146 0.036936223831077059 -0.83618875858701347 -0.062238514727521392 1.6950000000000001 1.1067317394037453 0.19743733746371803 1.2767692237608401 -0.33270369940225047 -2.8584731080188543 -1.8760653434318149
decision_type=2 2 2 2 2 2 2 2 2 2 2 2 2 2 2 2 2 2 2 2 2 2 2 2 2 2 2 2 2 2
left_child=1 27 13 6 -5 10 7 8 -4 -7 18 -3 -10 14 15 -2 17 -16 -6 20 21 22 -8 24 26 -26 -21 28 -1 -25
right_child=2 11 3 4 5 9 19 -9 12 -11 -12 -13 -14 -15 16 -17 -18 -19 -20 23 -22 -23 -24 29 25 -27 -28 -29 -30 -31
leaf_value=0.065505902592720044 0.22454137511090974 -0.010052377526913963 0.10764793792785973 0.76826763238870432 -0.010099261011528516 0.15498229815824385 0.11981249865958293 -0.010050899697494453 0.072859353428233339 0.068602815858143762 0.12377551217904874 0.065838781987610479 -0.010296866856143876 -0.0090138603738327498 0.20126662704627699 -0.010070814861052426 -0.0077734132044976938 -0.01005048399204128 0.093269043007181848 -0.010053297935598414 0.13768977954133083 -0.010055969024937422 0.034427846186380111 0.0082950911551198953 -0.010058863589009912 0.24631388158840076 0.092626606545286913 0.064379246423319422 0.08396247941961317 -0.01006581804537262
leaf_weight=2.5876542329788208 0.17045347578823555 2.3364264257252212 0.92594932485371828 0.012847849633544128 1.2684788666665556 0.60371544770896413 0.15396355791017413 0.78775363508611906 0.35509432107210159 0.63321116240695119 0.1490236623212694 0.39048961270600546 0.36680623888970065 281.61624795105308 0.14192775031551719 0.1484813722781837 4.3952022171579292 0.46990003762766708 0.096729046665131935 1.9467122158966921 0.202893582638353 2.3788590249605575 0.2199748260900386 1.0888083968311644 0.1953551499173044 0.11696994211524725 0.097365899942815193 28.651116229593754 2.199175893329083 13.791452850215125
leaf_count=24 20 511 29 2 228 16 23 165 3 39 11 28 57 65562 22 23 972 99 16 409 26 486 20 222 38 12 18 260 23 3005
internal_value=0 0.0608578 -0.00742816 0.00755848 0.0584414 0.0551266 0.00134312 0.0467457 0.0738972 0.110763 0.00967924 0.000815104 0.0306067 -0.00875436 0.00496725 0.115317 -0.00206173 0.0389695 -0.00277531 -0.00413333 0.0101616 0.000762237 0.0695837 -0.00658459 0.0069148 0.0859562 -0.00516233 0.0657544 0.0739853 -0.00872233
internal_weight=0 36.1649 312.334 25.392 2.76401 2.75116 22.628 2.4356 1.64785 1.23693 1.51423 2.72692 0.721901 286.942 5.32596 0.318935 5.00703 0.611828 1.36521 20.1924 2.95569 2.7528 0.373938 17.2367 2.3564 0.312325 2.04408 33.4379 4.78683 14.8803
internal_count=72369 846 71523 4825 312 310 4513 254 89 55 255 539 60 66698 1136 43 1093 121 244 4259 555 529 43 3704 477 50 427 307 47 3227
is_linear=0
shrinkage=0.01


Tree=14
num_leaves=31
num_cat=0
split_feature=14 17 10 15 4 17 6 4 12 13 8 14 28 1 10 12 23 14 23 15 13 8 7 19 29 15 13 23 19 7
split_gain=1541.07 63.6073 28.9334 33.6556 25.8703 40.8697 40.2819 40.1416 13.9718 13.1375 11.556 12.3034 10.251 22.8827 29.964 10.6211 20.5581 7.25308 15.2915 43.3959 8.80114 7.19146 5.26499 23.3343 56.1626 5.09728 29.4373 43.9257 4.88572 6.12846
threshold=-3.3336187651522047 -2.2915491388384046 -1.8403568755655046 -0.14100120934987198 2.4853369031465102 1.4626711922998252 -0.14159585805661498 3.2430479768164155 -2.6089970653666845 -1.3136706449465099 -0.14463694438828498 -2.3189154979420947 0.14420847101834852 -0.12590323532816497 2.9277898408369754 -2.7491087985345946 0.10706149894634702 -0.80973692506414641 1.1593535135056301 1.1344569114641052 1.0878621554262302 -0.15161932302305847 2.9611700721158702 0.67538549520273106 754.42000000000019 1.2579211978082852 -0.88285869423650087 -0.13481860407815996 -2.1498469664689392 0.53175075177504516
decision_type=2 2 2 2 2 2 2 2 2 2 2 2 2 2 2 2 2 2 2 2 2 2 2 2 2 2 2 2 2 2
left_child=2 -2 -1 -4 17 10 7 -7 -5 -8 12 -12 15 14 -14 16 -6 18 25 20 -20 -17 -19 -24 -25 28 27 -27 29 -3
right_child=1 4 3 8 5 6 9 -9 -10 -11 11 -13 13 -15 -16 21 -18 22 19 -21 -22 -23 23 24 -26 26 -28 -29 -30 -31
leaf_value=0.062638983961613257 0.053083503961541885 -0.01004342462367728 0.080345413154664161 0.05301059196197451 -0.010055518496950258 0.17684545997699544 0.074115546502349583 0.035631972694925733 -0.010095165201560905 -0.010113662536532132 0.056691955629972847 -0.0083347318941941039 -0.010053902092035721 0.10534764119452747 0.1604888165293496 -0.0064918590380374586 0.16400932024066076 -0.0094798766993130518 -0.010054426548514248 0.19310169364739646 0.09239049744132663 0.072045118132782665 -0.010047742195590872 0.27376612228422553 -0.010045438546894367 0.19329977025477771 -0.010045051797640652 -0.010044066506336 -0.0067788518060611924 0.10667775649421056
leaf_weight=34.78144097328186 1.7140197753906239 0.09471455728635092 0.8754404149949554 0.46482712216675293 0.16581832105293903 0.37377165164798509 0.23554197791963805 0.43624347448348999 1.430747868493198 0.86602090299129364 0.29839045554399923 11.694681677967305 0.85032982006669044 0.3461553296074269 0.11722549330443144 2.805298928637058 0.11484589567407966 248.70903589157388 0.59788061678409476 0.14760392578318715 0.097542140167206526 0.12164791999385194 1.2863203934393812 0.10568699473515142 0.20490940660238266 0.19662908697500825 1.5854323809035111 0.23107454646378789 36.741787998005748 0.085672231856733561
leaf_count=286 26 22 37 6 31 16 13 39 232 106 18 2676 168 31 13 559 14 58684 118 18 15 18 283 19 46 32 358 53 8413 19
internal_value=0 -0.00766597 0.0601614 0.0290633 -0.00800348 0.00348632 0.0472608 0.100793 0.00537944 0.00789667 -0.00158067 -0.00671685 0.0120433 0.0355717 0.0106084 0.00240707 0.0611706 -0.00873331 -0.00476677 0.0373691 0.00431481 -0.00322775 -0.00936366 0.0087359 0.0865274 -0.0056791 0.00981637 0.0834396 -0.00652397 0.0453917
internal_weight=0 310.224 37.5525 2.77102 308.51 18.426 1.91158 0.810015 1.89557 1.10156 16.5144 11.9931 4.52132 1.31371 0.967555 3.20761 0.280664 290.084 39.7783 0.843027 0.695423 2.92695 250.306 1.59692 0.310596 38.9353 2.01314 0.427704 36.9222 0.180387
internal_count=72369 71808 561 275 71782 3702 174 55 238 119 3528 2694 834 212 181 622 45 68080 9048 151 133 577 59032 348 65 8897 443 85 8454 41
is_linear=0
shrinkage=0.01


end of trees

feature_importances:
V17=46
V4=41
V14=40
V12=24
V1=20
V7=19
V10=19
V15=19
Amount=19
V8=18
V21=16
V25=16
V11=15
V26=15
V23=14
V13=12
V19=12
V20=12
V24=10
V16=9
V9=7
V28=7
V2=6
V3=6
V22=6
Time=5
V6=5
V18=5
V27=5
V5=2

parameters:
[boosting: gbdt]
[objective: binary]
[metric: binary_logloss]
[tree_learner: serial]
[device_type: gpu]
[data_sample_strategy: bagging]
[data: ]
[valid: ]
[num_iterations: 15]
[learning_rate: 0.01]
[num_leaves: 31]
[num_threads: 0]
[seed: 0]
[deterministic: 0]
[force_col_wise: 1]
[force_row_wise: 0]
[histogram_pool_size: -1]
[max_depth: -1]
[min_data_in_leaf: 20]
[min_sum_hessian_in_leaf: 0.001]
[bagging_fraction: 0.8]
[pos_bagging_fraction: 1]
[neg_bagging_fraction: 1]
[bagging_freq: 5]
[bagging_seed: 3]
[feature_fraction: 0.9]
[feature_fraction_bynode: 1]
[feature_fraction_seed: 2]
[extra_trees: 0]
[extra_seed: 6]
[early_stopping_round: 0]
[first_metric_only: 0]
[max_delta_step: 0]
[lambda_l1: 0]
[lambda_l2: 0]
[linear_lambda: 0]
[min_gain_to_split: 0]
[drop_rate: 0.1]
[max_drop: 50]
[skip_drop: 0.5]
[xgboost_dart_mode: 0]
[uniform_drop: 0]
[drop_seed: 4]
[top_rate: 0.2]
[other_rate: 0.1]
[min_data_per_group: 100]
[max_cat_threshold: 32]
[cat_l2: 10]
[cat_smooth: 10]
[max_cat_to_onehot: 4]
[top_k: 20]
[monotone_constraints: ]
[monotone_constraints_method: basic]
[monotone_penalty: 0]
[feature_contri: ]
[forcedsplits_filename: ]
[refit_decay_rate: 0.9]
[cegb_tradeoff: 1]
[cegb_penalty_split: 0]
[cegb_penalty_feature_lazy: ]
[cegb_penalty_feature_coupled: ]
[path_smooth: 0]
[interaction_constraints: ]
[verbosity: 1]
[saved_feature_importance_type: 0]
[use_quantized_grad: 0]
[num_grad_quant_bins: 4]
[quant_train_renew_leaf: 0]
[stochastic_rounding: 1]
[linear_tree: 0]
[max_bin: 255]
[max_bin_by_feature: ]
[min_data_in_bin: 3]
[bin_construct_sample_cnt: 200000]
[data_random_seed: 1]
[is_enable_sparse: 1]
[enable_bundle: 1]
[use_missing: 1]
[zero_as_missing: 0]
[feature_pre_filter: 1]
[pre_partition: 0]
[two_round: 0]
[header: 0]
[label_column: ]
[weight_column: ]
[group_column: ]
[ignore_column: ]
[categorical_feature: ]
[forcedbins_filename: ]
[precise_float_parser: 0]
[parser_config_file: ]
[objective_seed: 5]
[num_class: 1]
[is_unbalance: 0]
[scale_pos_weight: 1]
[sigmoid: 1]
[boost_from_average: 1]
[reg_sqrt: 0]
[alpha: 0.9]
[fair_c: 1]
[poisson_max_delta_step: 0.7]
[tweedie_variance_power: 1.5]
[lambdarank_truncation_level: 30]
[lambdarank_norm: 1]
[label_gain: ]
[lambdarank_position_bias_regularization: 0]
[eval_at: ]
[multi_error_top_k: 1]
[auc_mu_weights: ]
[num_machines: 1]
[local_listen_port: 12400]
[time_out: 120]
[machine_list_filename: ]
[machines: ]
[gpu_platform_id: -1]
[gpu_device_id: -1]
[gpu_use_dp: 0]
[num_gpu: 1]

end of parameters

pandas_categorical:[]
